tree
version=v3
num_class=1
num_tree_per_iteration=1
label_index=0
max_feature_idx=25
objective=regression
feature_names=CO_UF_RESIDENCIA NU_IDADE TP_ANO_CONCLUIU TP_SEXO IN_TREINEIRO TP_LINGUA Q001 Q002 Q003 Q004 Q005 Q006 Q007 Q008 Q010 Q011 Q012 Q013 Q014 Q015 Q016 Q018 Q021 Q023 Q024 Q025
feature_infos=[11:53] [11:85] [0:13] [0:1] [0:1] [0:1] [0:1] [0:1] [0:1] [0:1] [0:1] [0:1] [0:1] [0:1] [0:1] [0:1] [0:1] [0:1] [0:1] [0:1] [0:1] [0:1] [0:1] [0:1] [0:1] [0:1]
tree_sizes=3081 3237 3245 3241 3225 3232 3221 3230 3224 3239 3233 3188 3238 3174 3244 3267 3207 3221 3216 3212 3211 3242 3217 3208 3247 3228 3246 3220 3249 3229 3242 3234 3219 3247 3198 3232 3245 3248 3233 3239 3238 3247 3219 3228 3234 3253 3263 3252 3264 3272 3249 3281 3259 3273 3273 3239 3258 3242 3244 3263 3296 3274 3246 3283 3227 3237 3304 3241 3294 3273 3283 3323 3242 3253 3240 3309 3263 3284 3268 3222 3280 3235 3260 3241 3273 3261 3276 3265 3225 3270 3239 3269 3265 3251 3270 3308 3279 3264 3251 3246

Tree=0
num_leaves=31
num_cat=0
split_feature=11 9 24 24 1 1 6 4 5 9 5 3 1 2 2 1 3 1 4 2 3 3 1 2 2 1 1 4 3 3
split_gain=6245.92 1335.25 947.846 606.935 481.119 395.816 353.149 195.212 159.64 158.6 155.132 117.197 107.379 100.879 98.3492 204.719 91.8344 82.44 94.0468 79.2443 75.6557 69.5731 68.7814 176.798 127.568 66.5294 63.7833 62.7578 61.9458 59.5187
threshold=0.38235294117647062 1.0000000180025095e-35 1.0000000180025095e-35 0.3000000000000001 30.500000000000004 29.500000000000004 0.5 1.0000000180025095e-35 1.0000000180025095e-35 0.41666666666666669 1.0000000180025095e-35 1.0000000180025095e-35 24.500000000000004 9.5000000000000018 1.0000000180025095e-35 18.500000000000004 1.0000000180025095e-35 30.500000000000004 1.0000000180025095e-35 11.500000000000002 1.0000000180025095e-35 1.0000000180025095e-35 19.500000000000004 1.5000000000000002 1.0000000180025095e-35 20.500000000000004 18.500000000000004 1.0000000180025095e-35 1.0000000180025095e-35 1.0000000180025095e-35
decision_type=2 2 2 2 2 2 2 2 2 2 2 2 2 2 2 2 2 2 2 2 2 2 2 2 2 2 2 2 2 2
left_child=1 8 4 5 10 9 11 12 20 22 21 17 16 -7 15 -11 -8 18 -2 -6 -1 -3 24 -24 26 -16 27 -4 -10 -12
right_child=6 2 3 -5 19 13 7 -9 28 14 29 -13 -14 -15 25 -17 -18 -19 -20 -21 -22 -23 23 -25 -26 -27 -28 -29 -30 -31
leaf_value=0.58703320371635714 0.5925603095571701 0.58323766835891344 0.57698823667374588 0.58337643860320243 0.56768657359706165 0.56372769412102175 0.59907906381782783 0.5892742356574695 0.58247489075328729 0.57310296081897016 0.57980820243940578 0.58558965096880133 0.58676826913135505 0.57035641503121626 0.57682974484066807 0.5646565990245993 0.59381328193222727 0.58082311703878298 0.5860269667944944 0.57433165766218575 0.58304866379846454 0.58031404306943191 0.56880443332787256 0.57593040571589449 0.5798968698671223 0.57290500117797016 0.57074714940816018 0.57305911154003231 0.57845205355879215 0.57695736737275261
leaf_weight=105183 83250 170426 166468 74373 24886 34285 68513 70023 103074 141386 191394 108753 12305 69493 81004 36003 64110 8876 29963 64352 87123 155809 45121 152461 89120 92524 25514 53786 60890 118622
leaf_count=105183 83250 170426 166468 74373 24886 34285 68513 70023 103074 141386 191394 108753 12305 69493 81004 36003 64110 8876 29963 64352 87123 155809 45121 152461 89120 92524 25514 53786 60890 118622
internal_value=0.579923 0.577683 0.576569 0.574665 0.579355 0.574009 0.590693 0.59361 0.583273 0.574695 0.580319 0.587977 0.595704 0.568166 0.573044 0.571389 0.596534 0.590104 0.590831 0.572479 0.585228 0.581841 0.575783 0.574303 0.576656 0.574737 0.57548 0.576029 0.580981 0.578717
internal_weight=0 2.1433e+06 1.78703e+06 1.06154e+06 725489 987165 445793 214951 356270 883387 636251 230842 144928 103778 350917 177389 132623 122089 113213 89238 192306 326235 532470 197582 334888 173528 245768 220254 163964 310016
internal_count=2589090 2143297 1787027 1061538 725489 987165 445793 214951 356270 883387 636251 230842 144928 103778 350917 177389 132623 122089 113213 89238 192306 326235 532470 197582 334888 173528 245768 220254 163964 310016
is_linear=0
shrinkage=1


Tree=1
num_leaves=31
num_cat=0
split_feature=11 25 9 1 7 11 24 4 24 1 11 2 5 24 5 5 2 1 1 3 0 3 1 2 1 2 3 4 2 3
split_gain=5059.2 1161.09 743.137 537.223 324.403 319.27 244.853 193.441 167.589 153.392 124.02 103.613 98.8445 93.4852 88.4609 75.2395 72.0055 200.573 75.3813 71.5502 65.4486 62.0533 57.0314 96.8209 98.2524 65.2954 53.0749 52.4832 50.0394 47.0088
threshold=0.38235294117647062 1.0000000180025095e-35 1.0000000180025095e-35 32.500000000000007 0.5 0.088235294117647065 1.0000000180025095e-35 1.0000000180025095e-35 0.3000000000000001 33.500000000000007 0.61764705882352955 12.500000000000002 1.0000000180025095e-35 1.0000000180025095e-35 1.0000000180025095e-35 1.0000000180025095e-35 1.0000000180025095e-35 18.500000000000004 20.500000000000004 1.0000000180025095e-35 34.000000000000007 1.0000000180025095e-35 21.500000000000004 1.0000000180025095e-35 18.500000000000004 2.5000000000000004 1.0000000180025095e-35 1.0000000180025095e-35 12.500000000000002 1.0000000180025095e-35
decision_type=2 2 2 2 2 2 2 2 2 2 2 2 2 2 2 2 2 2 2 2 2 2 2 2 2 2 2 2 2 2
left_child=1 2 12 5 14 20 15 10 22 13 19 -5 21 -3 26 -7 17 -15 -18 -6 -4 -1 23 24 27 -24 -2 -8 -11 -14
right_child=4 9 3 11 7 6 8 -9 -10 28 -12 -13 29 16 -16 -17 18 -19 -20 -21 -22 -23 25 -25 -26 -27 -28 -29 -30 -31
leaf_value=0.0069645239135048319 0.010050067309946543 -0.0016918264224812494 0.0040035020309733202 -0.012758887122073591 0.01398544454539459 0.0010474288713922858 -0.0028272907642560969 0.0079777377877316754 0.0028583787234391922 -0.015959610953737626 0.016717798143275571 -0.0062500066836152267 0.0031055649316930056 -0.0057178095345099328 0.0033368517605573615 -0.0015247789225104941 -0.0026806321504820822 -0.013202248094572386 -0.0063443009141204128 0.0085262049129477598 0.00063454065296236956 0.0032030086597627256 -0.011275288799206785 -0.0013194760895265086 -0.0098102990333546556 -0.0048501358031534277 0.0059430827006307432 -0.0066678731586619928 -0.0090370119243699653 -0.00069401905242438616
leaf_weight=96244 63223 56592 109414 36211 50878 225760 135457 82678 38516 16774 81033 75345 87287 164511 59880 229142 97733 45767 132028 45457 121920 80573 19790 135219 32381 78779 62644 48258 27660 51936
leaf_count=96244 63223 56592 109414 36211 50878 225760 135457 82678 38516 16774 81033 75345 87287 164511 59880 229142 97733 45767 132028 45457 121920 80573 19790 135219 32381 78779 62644 48258 27660 51936
internal_value=0 -0.00201601 -0.000663458 -0.00173101 0.00969263 -0.00110119 -0.00191762 0.0119725 -0.00347251 -0.00602126 0.0138346 -0.00836278 0.00368118 -0.00551763 0.0065008 -0.000248237 -0.00600965 -0.0073468 -0.00478589 0.0114094 0.00222796 0.00525045 -0.00401452 -0.00341813 -0.00473133 -0.00614013 0.00800602 -0.00383613 -0.0116503 0.00168816
internal_weight=0 2.1433e+06 1.60223e+06 1.28619e+06 445793 1.17464e+06 943302 260046 488400 541065 177368 111556 316040 496631 185747 454902 440039 210278 229761 96335 231334 176817 449884 351315 216096 98569 125867 183715 44434 139223
internal_count=2589090 2143297 1602232 1286192 445793 1174636 943302 260046 488400 541065 177368 111556 316040 496631 185747 454902 440039 210278 229761 96335 231334 176817 449884 351315 216096 98569 125867 183715 44434 139223
is_linear=0
shrinkage=0.1


Tree=2
num_leaves=31
num_cat=0
split_feature=11 25 1 9 11 5 2 1 2 1 11 1 1 0 4 1 4 2 1 9 3 4 24 0 2 4 3 2 1 11
split_gain=4097.95 940.484 626.987 460.93 277.008 242.03 211.705 129.175 127.101 155.941 125.593 125.275 113.94 116.59 105.64 96.8296 96.0244 92.6296 96.319 84.6538 78.8575 78.4255 64.0058 62.355 62.0454 61.7969 56.7124 46.0095 94.8738 44.1282
threshold=0.38235294117647062 1.0000000180025095e-35 24.500000000000004 1.0000000180025095e-35 0.61764705882352955 1.0000000180025095e-35 5.5000000000000009 36.500000000000007 1.0000000180025095e-35 18.500000000000004 0.088235294117647065 36.500000000000007 33.500000000000007 34.000000000000007 1.0000000180025095e-35 24.500000000000004 1.0000000180025095e-35 1.0000000180025095e-35 18.500000000000004 0.41666666666666669 1.0000000180025095e-35 1.0000000180025095e-35 1.0000000180025095e-35 34.000000000000007 1.0000000180025095e-35 1.0000000180025095e-35 1.0000000180025095e-35 1.0000000180025095e-35 18.500000000000004 0.088235294117647065
decision_type=2 2 2 2 2 2 2 2 2 2 2 2 2 2 2 2 2 2 2 2 2 2 2 2 2 2 2 2 2 2
left_child=1 2 3 16 12 10 -4 -8 9 25 -5 19 13 21 15 23 20 18 -12 -3 29 26 -10 -6 -15 -7 -2 28 -21 -1
right_child=4 11 6 5 14 8 7 -9 22 -11 17 -13 -14 24 -16 -17 -18 -19 -20 27 -22 -23 -24 -25 -26 -27 -28 -29 -30 -31
leaf_value=0.0088097089238960095 0.01330636120274627 -0.0038880670582792545 -0.010491073641069089 0.0036951011329675407 0.017304636964600058 -0.0016573873918179793 -0.0020066773966777407 -0.007215254376246389 0.0010275755035186233 -0.0093123167186444731 -0.00053475877586995138 -0.011480607597995768 -0.0019965549122378705 0.0036157945485927167 0.0083243135720694524 0.0054615932531552388 0.00024303201493321982 0.0017751023093309877 -0.0068085421720193891 -0.006375244764663438 0.0026597688998305242 0.0051211896320521502 -0.0021111102608290539 0.012372632284693923 0.0081343391179596585 -0.0054300846983328247 0.0083275318745127148 -0.0051424067143837566 -0.013516339308035667 0.0050027864758033103
leaf_weight=49284 47560 283731 54081 121987 46565 164552 162134 67412 126109 41726 192733 32075 14186 88123 57360 13090 56777 169836 28030 81450 94903 31410 134018 57030 46384 58979 44085 119697 24112 79671
leaf_count=49284 47560 283731 54081 121987 46565 164552 162134 67412 126109 41726 192733 32075 14186 88123 57360 13090 56777 169836 28030 81450 94903 31410 134018 57030 46384 58979 44085 119697 24112 79671
internal_value=0 -0.00181441 -0.000597112 0.00032034 0.00872337 -0.000651822 -0.00486242 -0.00353631 -0.00216012 -0.00370039 0.000894136 -0.00541914 0.00672844 0.007209 0.0118382 0.0135655 0.00391602 1.93733e-05 -0.00133133 -0.00503716 0.0048476 0.00943339 -0.000589482 0.0145895 0.00517399 -0.00265282 0.0109113 -0.00648454 -0.00800638 0.00645772
internal_weight=0 2.1433e+06 1.60223e+06 1.3186e+06 445793 1.03797e+06 283627 229546 525384 265257 512586 541065 271748 257562 174045 116685 280635 390599 220763 508990 223858 123055 260127 103595 134507 223531 91645 225259 105562 128955
internal_count=2589090 2143297 1602232 1318605 445793 1037970 283627 229546 525384 265257 512586 541065 271748 257562 174045 116685 280635 390599 220763 508990 223858 123055 260127 103595 134507 223531 91645 225259 105562 128955
is_linear=0
shrinkage=0.1


Tree=3
num_leaves=31
num_cat=0
split_feature=11 25 1 11 5 11 11 7 2 4 0 1 2 1 1 1 3 2 1 2 1 1 2 11 4 4 0 5 2 0
split_gain=3319.34 761.792 512.959 384.982 254.283 230.084 167.476 162.604 155.3 127.337 111.537 108.117 93.8776 138.878 90.4551 85.5339 80.6929 74.4248 153.612 63.716 69.5784 59.1961 54.0638 53.4948 51.0936 50.4019 49.5504 45.5177 43.4076 42.2871
threshold=0.38235294117647062 1.0000000180025095e-35 25.500000000000004 0.088235294117647065 1.0000000180025095e-35 0.14705882352941177 0.20588235294117649 0.5 6.5000000000000009 1.0000000180025095e-35 34.000000000000007 29.500000000000004 1.0000000180025095e-35 18.500000000000004 37.500000000000007 19.500000000000004 1.0000000180025095e-35 1.0000000180025095e-35 18.500000000000004 1.0000000180025095e-35 18.500000000000004 19.500000000000004 10.500000000000002 1.0000000180025095e-35 1.0000000180025095e-35 1.0000000180025095e-35 34.000000000000007 1.0000000180025095e-35 1.5000000000000002 34.000000000000007
decision_type=2 2 2 2 2 2 2 2 2 2 2 2 2 2 2 2 2 2 2 2 2 2 2 2 2 2 2 2 2 2
left_child=1 2 3 10 7 19 29 -2 -4 16 23 17 13 25 -10 -14 -9 18 24 20 -5 -19 -13 -1 -3 26 -8 -12 -17 -7
right_child=4 11 8 5 -6 6 12 9 14 -11 27 22 15 -15 -16 28 -18 21 -20 -21 -22 -23 -24 -25 -26 -27 -28 -29 -30 -31
leaf_value=0.0036143547248818999 0.0064042676662598554 -0.003311031282996871 -0.0096206787678905226 -0.0034292672074565747 0.0037427947718720409 0.0062594093094165406 0.0015159233938921352 0.015140766121278616 -0.0020452559188996844 0.0074962728632035945 0.0026914510150586376 -0.012479356883813077 0.0030513675364210128 -0.0067840866707226805 -0.0067013815793340705 -0.0053272812160713888 0.01028927599416052 -0.00074849708818293587 -0.010710892769732113 -0.0015064834237214204 -0.0089290930783763947 -0.0041490397529964805 -0.0065361646416500357 0.0073316330609611933 -0.0070789384482545202 -0.0028402285074889335 -0.0016542139946010021 -0.00076873263706444053 6.9564897320911829e-05 0.002091659808668116
leaf_weight=96471 125867 134166 51003 131933 112606 47382 113405 69097 139662 70178 101119 23688 116622 43423 59499 16357 68045 73208 47348 147604 27860 170217 43257 64662 49181 79303 87230 60922 167704 50071
leaf_count=96471 125867 134166 51003 131933 112606 47382 113405 69097 139662 70178 101119 23688 116622 43423 59499 16357 68045 73208 47348 147604 27860 170217 43257 64662 49181 79303 87230 60922 167704 50071
internal_value=0 -0.00163297 -0.000537401 0.000232247 0.00785103 -0.000713455 0.000262637 0.00923948 -0.00469713 0.0109608 0.00324309 -0.00487722 -0.000339436 -0.00152216 -0.00343627 0.000932492 0.0127336 -0.00434605 -0.00563305 -0.00300446 -0.00438816 -0.00312636 -0.00863912 0.00510608 -0.00432173 -0.000705951 0.000137644 0.00139054 -0.000410038 0.00411803
internal_weight=0 2.1433e+06 1.60223e+06 1.35207e+06 445793 1.02889e+06 721497 333187 250164 207320 323174 541065 624044 323361 199161 300683 137142 474120 230695 307397 159793 243425 66945 161133 183347 279938 200635 162041 184061 97453
internal_count=2589090 2143297 1602232 1352068 445793 1028894 721497 333187 250164 207320 323174 541065 624044 323361 199161 300683 137142 474120 230695 307397 159793 243425 66945 161133 183347 279938 200635 162041 184061 97453
is_linear=0
shrinkage=0.1


Tree=4
num_leaves=31
num_cat=0
split_feature=11 24 24 1 1 6 9 9 2 4 3 1 2 1 0 2 1 2 2 1 1 5 1 4 0 3 3 4 5 3
split_gain=2688.67 677.825 706.058 298.575 246.09 226.182 148.242 128.763 112.244 101.566 85.5473 76.6907 116.325 68.766 62.6171 61.2622 74.1661 60.3004 60.1311 107.014 58.4591 57.1587 54.582 53.0124 52.1335 51.7746 43.3061 43.0604 41.1962 40.0242
threshold=0.38235294117647062 1.0000000180025095e-35 0.3000000000000001 28.500000000000004 23.500000000000004 0.5 1.0000000180025095e-35 0.41666666666666669 4.5000000000000009 1.0000000180025095e-35 1.0000000180025095e-35 23.500000000000004 1.0000000180025095e-35 26.500000000000004 34.000000000000007 1.0000000180025095e-35 18.500000000000004 9.5000000000000018 1.0000000180025095e-35 18.500000000000004 19.500000000000004 1.0000000180025095e-35 36.500000000000007 1.0000000180025095e-35 34.000000000000007 1.0000000180025095e-35 1.0000000180025095e-35 1.0000000180025095e-35 1.0000000180025095e-35 1.0000000180025095e-35
decision_type=2 2 2 2 2 2 2 2 2 2 2 2 2 2 2 2 2 2 2 2 2 2 2 2 2 2 2 2 2 2
left_child=1 3 4 6 7 11 23 18 -6 13 21 12 24 14 -7 16 -9 -5 19 27 -20 -8 -10 25 -2 -1 -14 -3 -12 -4
right_child=5 2 29 17 8 9 10 15 22 -11 28 -13 26 -15 -16 -17 -18 -19 20 -21 -22 -23 -24 -25 -26 -27 -28 -29 -30 -31
leaf_value=0.0061224692201844733 0.0061764944025036808 -0.0015178321902455444 0.0061885601760459661 -0.0082277089922362327 -0.010670526000091694 0.013838728384059888 0.002863212423339135 -0.0049559396442492932 -0.0045124718070802157 0.0062729634309117953 0.00022755866903893305 0.00061596453463901024 0.011526697577174106 0.0028270217272615352 0.0095181782234532806 -0.0030718076907156975 -0.010302040008486871 -0.0028749477338903279 0.00077138186471204743 -0.0073116444010800311 -0.0023493162334079186 0.00031538516316921615 -0.0087022582828951839 0.00026548336390835869 0.0021680214279514924 0.0024166188698325633 0.0063073328315648635 -0.0044003809744909122 -0.0022861916683498953 0.0024959042423908992
leaf_weight=86774 58760 199933 58763 27178 54949 61918 167648 141386 133694 70023 152244 35489 35049 9810 73200 131113 31783 93274 107940 49766 135232 185461 40516 36356 72452 66662 29092 69956 114022 58647
leaf_count=86774 58760 199933 58763 27178 54949 61918 167648 141386 133694 70023 152244 35489 35049 9810 73200 131113 31783 93274 107940 49766 135232 185461 40516 36356 72452 66662 29092 69956 114022 58647
internal_value=0 -0.00146967 -0.00302606 0.000562296 -0.0038154 0.00706593 0.00125375 -0.00304517 -0.00672985 0.0094002 0.000504495 0.00489235 0.00566923 0.0109111 0.0114981 -0.00470249 -0.00593715 -0.00408271 -0.00214917 -0.00305069 -0.00096409 0.00152503 -0.00548689 0.00369889 0.00396312 0.00451242 0.00915939 -0.002265 -0.000848894 0.00434406
internal_weight=0 2.1433e+06 1.21368e+06 929619 1.09627e+06 445793 809167 867109 229159 214951 619375 230842 195353 144928 135118 304282 173169 120452 562827 319655 243172 353109 174210 189792 131212 153436 64141 269889 266266 117410
internal_count=2589090 2143297 1213678 929619 1096268 445793 809167 867109 229159 214951 619375 230842 195353 144928 135118 304282 173169 120452 562827 319655 243172 353109 174210 189792 131212 153436 64141 269889 266266 117410
is_linear=0
shrinkage=0.1


Tree=5
num_leaves=31
num_cat=0
split_feature=11 11 24 24 12 1 1 5 11 9 3 4 5 2 0 1 0 1 4 5 3 9 2 1 1 0 2 4 1 2
split_gain=2177.82 572.996 407.878 261.84 203.501 186.368 184.225 101.633 95.8676 93.1233 83.4163 73.2008 69.9291 50.5565 49.5945 48.5929 48.0993 47.8215 44.6384 44.3087 44.0728 42.3334 39.6705 64.0789 37.5584 36.2379 33.7734 33.6366 40.4389 50.5857
threshold=0.38235294117647062 0.088235294117647065 1.0000000180025095e-35 0.3000000000000001 1.0000000180025095e-35 27.500000000000004 33.500000000000007 1.0000000180025095e-35 1.0000000180025095e-35 0.41666666666666669 1.0000000180025095e-35 1.0000000180025095e-35 1.0000000180025095e-35 9.5000000000000018 34.000000000000007 22.500000000000004 34.000000000000007 22.500000000000004 1.0000000180025095e-35 1.0000000180025095e-35 1.0000000180025095e-35 1.0000000180025095e-35 1.0000000180025095e-35 18.500000000000004 23.500000000000004 34.000000000000007 1.0000000180025095e-35 1.0000000180025095e-35 20.500000000000004 2.5000000000000004
decision_type=2 2 2 2 2 2 2 2 2 2 2 2 2 2 2 2 2 2 2 2 2 2 2 2 2 2 2 2 2 2
left_child=1 8 6 5 7 9 12 10 14 19 18 15 21 -7 17 25 27 -1 24 -4 -10 -3 23 -11 26 -6 -2 28 -14 -30
right_child=4 2 3 -5 11 13 -8 -9 20 22 -12 -13 16 -15 -16 -17 -18 -19 -20 -21 -22 -23 -24 -25 -26 -27 -28 -29 29 -31
leaf_value=0.0032806467872086974 0.0080286472434347826 0.0036631981662922156 -0.0013263948366918597 0.0028660488800790166 0.014422423787183895 -0.0099939356697905119 -0.005572132218593458 0.0021472952639765169 0.0054081004890110694 -0.0046445741583725107 0.0041018111968274453 0.0065209124492646474 0.0018268898669075316 -0.0058153148978312003 -0.00077310865303551889 0.0046472650581605877 -0.00255545148593738 -0.0009720695170721595 0.0048224179062751373 -0.0031629088346070548 0.0021134947360781065 0.00077539853708337783 -0.0034171876565648033 -0.0095056942212743412 0.0031943431850050708 0.010082026249472886 0.012392392109657155 -0.0035714837073362012 -0.007271221179114328 -0.00012422518182143914
leaf_weight=95371 38531 64070 220210 63910 37029 45935 58286 91710 90222 134262 105662 49866 106459 78324 110078 9670 100061 36585 31396 325638 73830 244416 157261 33980 9036 40030 32863 22238 11518 70643
leaf_count=95371 38531 64070 220210 63910 37029 45935 58286 91710 90222 134262 105662 49866 106459 78324 110078 9670 100061 36585 31396 325638 73830 244416 157261 33980 9036 40030 32863 22238 11518 70643
internal_value=0 -0.0013227 -0.00211323 -0.00333869 0.00635934 -0.00373699 -0.000197312 0.00493925 0.00205913 -0.00322032 0.00611655 0.00957387 0.000308458 -0.00736003 0.000794158 0.0113292 -0.000749907 0.00210157 0.00802024 -0.00242201 0.0039254 0.00137517 -0.00455905 -0.00562638 0.00926852 0.0121677 0.0100373 0.0001069 0.000540575 -0.00112615
internal_weight=0 2.1433e+06 1.73721e+06 1.05952e+06 445793 995610 677691 309198 406086 871351 217488 136595 619405 124259 242034 86729 310919 131956 111826 545848 164052 308486 325503 168242 80430 77059 71394 210858 188620 82161
internal_count=2589090 2143297 1737211 1059520 445793 995610 677691 309198 406086 871351 217488 136595 619405 124259 242034 86729 310919 131956 111826 545848 164052 308486 325503 168242 80430 77059 71394 210858 188620 82161
is_linear=0
shrinkage=0.1


Tree=6
num_leaves=31
num_cat=0
split_feature=11 9 24 24 11 1 1 2 1 3 5 2 4 1 2 2 3 1 1 2 1 4 1 1 6 2 0 4 2 5
split_gain=1764.03 499.568 341.874 226.12 182.814 160.491 143.614 96.9488 98.4885 78.7065 74.4923 73.2889 69.663 89.3652 160.785 60.3653 57.2348 54.0276 51.2351 59.9263 50.4239 49.8415 48.3657 47.3238 42.985 39.5168 39.2634 37.1788 36.8574 36.3704
threshold=0.38235294117647062 1.0000000180025095e-35 1.0000000180025095e-35 0.3000000000000001 0.61764705882352955 23.500000000000004 31.500000000000004 1.0000000180025095e-35 18.500000000000004 1.0000000180025095e-35 1.0000000180025095e-35 4.5000000000000009 1.0000000180025095e-35 19.500000000000004 1.5000000000000002 1.0000000180025095e-35 1.0000000180025095e-35 17.500000000000004 30.500000000000004 1.0000000180025095e-35 17.500000000000004 1.0000000180025095e-35 39.500000000000007 19.500000000000004 0.5 12.500000000000002 34.000000000000007 1.0000000180025095e-35 1.5000000000000002 1.0000000180025095e-35
decision_type=2 2 2 2 2 2 2 2 2 2 2 2 2 2 2 2 2 2 2 2 2 2 2 2 2 2 2 2 2 2
left_child=1 10 5 6 9 7 12 8 21 18 24 -7 13 15 -15 20 27 -14 19 -2 -4 26 -13 -9 -1 -8 -3 -6 -25 -11
right_child=4 2 3 -5 16 11 25 23 -10 29 -12 22 17 14 -16 -17 -18 -19 -20 -21 -22 -23 -24 28 -26 -27 -28 -29 -30 -31
leaf_value=0.0028139959703006373 0.0045549432547796909 0.0024171092161564475 -0.0011570380492818212 0.0023017098184942345 0.011521564852646668 -0.0074315505480815241 -0.0098971025953498194 0.0036705828790835511 -0.0057032176466184636 0.0033392969621968576 0.00066283779538288314 -0.0010060903840003754 -0.0046269806227112239 -0.0079783679687841121 -0.0028037879702138874 -0.00010987434862237558 0.0063939822677395106 -0.011467121859010243 -0.0018985811618410882 0.0088887038654699071 -0.0037333123602444774 -0.0021106532603218323 -0.0054289157582496214 -0.004165912809139658 0.0065442462044283528 -0.0055153553362474227 -0.0004930685129557903 0.0072431766528440744 0.0014104212014717924 -0.00043298502770444696
leaf_weight=153640 86560 92207 136105 74373 57949 28543 35546 108619 33252 90674 163964 121060 86017 76794 275362 143158 84824 13338 8388 50535 171954 74347 31071 13041 38666 48891 93241 31272 130108 35591
leaf_count=153640 86560 92207 136105 74373 57949 28543 35546 108619 33252 90674 163964 121060 86017 76794 275362 143158 84824 13338 8388 50535 171954 74347 31071 13041 38666 48891 93241 31272 130108 35591
internal_value=0 -0.00119043 -0.00187211 -0.00301556 0.0057234 -0.000199021 -0.00341616 0.00065749 -0.000578965 0.00410277 0.00222883 -0.00278179 -0.00304728 -0.00273835 -0.0039322 -0.00180659 0.00825381 -0.00554524 0.00568823 0.00615242 -0.00259508 7.69047e-05 -0.0019094 0.00209667 0.00356402 -0.00735997 0.000953907 0.010022 0.000902412 0.00227598
internal_weight=0 2.1433e+06 1.78703e+06 1.06154e+06 445793 725489 987165 544815 293047 271748 356270 180674 902728 803373 352156 451217 174045 99355 145483 137095 308059 259795 152131 251768 192306 84437 185448 89221 143149 126265
internal_count=2589090 2143297 1787027 1061538 445793 725489 987165 544815 293047 271748 356270 180674 902728 803373 352156 451217 174045 99355 145483 137095 308059 259795 152131 251768 192306 84437 185448 89221 143149 126265
is_linear=0
shrinkage=0.1


Tree=7
num_leaves=31
num_cat=0
split_feature=11 11 24 24 7 1 1 2 4 2 2 1 1 0 2 1 7 5 4 2 1 1 4 3 5 1 1 4 0 5
split_gain=1428.87 419.891 266.212 174.752 169.265 138.615 128.901 87.3319 81.6699 80.7879 79.0314 95.8037 74.4721 73.2453 71.8029 64.3137 58.8845 58.2689 55.3422 48.7884 43.8107 43.5127 43.1746 42.9448 42.9057 36.1852 35.8681 35.4279 34.645 34.2182
threshold=0.38235294117647062 0.088235294117647065 1.0000000180025095e-35 0.3000000000000001 0.5 22.500000000000004 22.500000000000004 1.0000000180025095e-35 1.0000000180025095e-35 4.5000000000000009 1.0000000180025095e-35 18.500000000000004 18.500000000000004 34.000000000000007 4.5000000000000009 22.500000000000004 1.0000000180025095e-35 1.0000000180025095e-35 1.0000000180025095e-35 1.0000000180025095e-35 35.500000000000007 34.500000000000007 1.0000000180025095e-35 1.0000000180025095e-35 1.0000000180025095e-35 18.500000000000004 18.500000000000004 1.0000000180025095e-35 34.000000000000007 1.0000000180025095e-35
decision_type=2 2 2 2 2 2 2 2 2 2 2 2 2 2 2 2 2 2 2 2 2 2 2 2 2 2 2 2 2 2
left_child=1 13 6 5 16 10 7 12 17 -7 11 18 22 15 -8 19 27 23 -4 26 -16 -11 28 -6 -15 -12 -1 -2 -3 -10
right_child=4 2 3 -5 8 9 14 -9 29 21 25 -13 -14 24 20 -17 -18 -19 -20 -21 -22 -23 -24 -25 -26 -27 -28 -29 -30 -31
leaf_value=0.0033205940957449194 0.0048930153077376935 0.0022011816540566521 -0.0018466934846257201 0.0023307905977570762 0.010745537614858839 -0.0080418277413635952 -0.0066453586306587861 0.0021388297997859728 0.0050608397276270351 -0.0030636749997340765 0.00097361285139925243 -0.0065535360702778508 -0.0051780540113140084 0.0016417575739267735 -0.00050540108983967264 0.00016565666670073355 6.2689661712012748e-05 0.004661181935942697 -0.0046128238964281143 0.006250353755903282 -0.0043706369842166385 -0.0066517049821604377 -0.0019400478149910331 0.0072062752444585201 -0.0013950864160502316 -0.0017129120726171343 -0.0032442213015998404 0.0010252904629076368 -0.00068415507183373176 -0.00061810808370693117
leaf_weight=84164 100842 94631 267954 63910 69097 68634 33488 217870 70178 130064 62833 73285 30760 115018 110990 55224 53953 40226 99071 64321 39854 45666 75818 68045 78123 248103 9236 30952 74280 12500
leaf_count=84164 100842 94631 267954 63910 69097 68634 33488 217870 70178 130064 62833 73285 30760 115018 110990 55224 53953 40226 99071 64321 39854 45666 75818 68045 78123 248103 9236 30952 74280 12500
internal_value=0 -0.00107139 -0.00174811 -0.00273814 0.00515106 -0.00306353 -0.00020027 0.000642738 0.00679791 -0.0051324 -0.00239057 -0.00325249 -0.000540444 0.00182358 -0.00245655 0.00310262 0.00284548 0.00800785 -0.00259335 0.00413096 -0.00152662 -0.00399608 4.24569e-05 0.00898948 0.000413394 -0.00117003 0.00267142 0.00398467 0.000932331 0.00420225
internal_weight=0 2.1433e+06 1.73721e+06 1.05952e+06 445793 995610 677691 493359 260046 244364 751246 440310 275489 406086 184332 212945 185747 177368 367025 157721 150844 175730 244729 137142 193141 310936 93400 131794 168911 82678
internal_count=2589090 2143297 1737211 1059520 445793 995610 677691 493359 260046 244364 751246 440310 275489 406086 184332 212945 185747 177368 367025 157721 150844 175730 244729 137142 193141 310936 93400 131794 168911 82678
is_linear=0
shrinkage=0.1


Tree=8
num_leaves=31
num_cat=0
split_feature=11 9 5 6 1 24 17 3 0 24 24 4 24 1 4 1 0 3 7 3 2 2 5 24 1 2 4 2 4 1
split_gain=1157.38 368.142 241.652 146.996 107.273 110.114 101.509 61.0243 58.9567 58.7561 58.7746 56.5936 46.8936 45.9613 45.5439 45.4545 49.8531 40.0994 35.2449 33.752 33.5341 32.6051 30.2094 29.1668 28.3102 42.0125 37.6074 27.2762 27.0177 27.7082
threshold=0.38235294117647062 1.0000000180025095e-35 1.0000000180025095e-35 0.5 37.500000000000007 1.0000000180025095e-35 1.0000000180025095e-35 1.0000000180025095e-35 34.000000000000007 0.3000000000000001 1.0000000180025095e-35 1.0000000180025095e-35 1.0000000180025095e-35 23.500000000000004 1.0000000180025095e-35 23.500000000000004 34.000000000000007 1.0000000180025095e-35 0.5 1.0000000180025095e-35 1.0000000180025095e-35 1.0000000180025095e-35 1.0000000180025095e-35 0.3000000000000001 20.500000000000004 2.5000000000000004 1.0000000180025095e-35 12.500000000000002 1.0000000180025095e-35 22.500000000000004
decision_type=2 2 2 2 2 2 2 2 2 2 2 2 2 2 2 2 2 2 2 2 2 2 2 2 2 2 2 2 2 2
left_child=1 9 6 8 5 19 12 24 13 10 17 15 -3 14 -2 16 -5 28 -8 -4 -9 -18 -10 -14 26 -26 -7 -6 29 -1
right_child=3 2 4 11 27 7 18 20 22 -11 -12 -13 23 -15 -16 -17 21 -19 -20 -21 -22 -23 -24 -25 25 -27 -28 -29 -30 -31
leaf_value=0.0052694264101008949 0.0069004536599858377 0.00010656696825369467 -3.0246775110316671e-05 0.010370319195216797 -0.0091895129009876408 -0.0012621656100485813 0.00094858549214855829 -0.0058563582008141334 0.0023489691726859248 0.0054355518604881602 -0.00037872077125350478 0.0041833875372274286 -0.0021474734471906205 0.00042481849814129252 0.001904554778295186 0.0022508892937018374 0.0047793929661214402 0.00087149594866050824 0.0046252191362909706 -0.0020874907040766013 -0.0032980803068197689 0.0091797702523541812 -0.0011695378658449795 0.0021172548618964139 -0.0067138041416337241 -0.0026039645101405577 -0.0045565617714736347 -0.0049479604410731385 0.00062502933193931754 0.00084222237525579551
leaf_weight=76819 65595 199911 207149 59318 23234 228863 245598 94750 83381 43037 109103 70023 267517 22088 25280 14099 44376 87083 29170 129671 111573 27135 34498 17059 31630 116433 40834 43635 22903 17325
leaf_count=76819 65595 199911 207149 59318 23234 228863 245598 94750 83381 43037 109103 70023 267517 22088 25280 14099 44376 87083 29170 129671 111573 27135 34498 17059 31630 116433 40834 43635 22903 17325
internal_value=0 -0.000964251 -0.00154943 0.00463596 -0.00254891 -0.00227941 -0.000196476 -0.00306584 0.0028837 0.00197098 0.00149496 0.00651776 -0.00106724 0.00451622 0.00551067 0.00764563 0.008227 0.0024964 0.00133891 -0.000822257 -0.00447292 0.00644913 0.00131926 -0.00189182 -0.00237091 -0.00348193 -0.00176096 -0.00642171 0.00370534 0.0044547
internal_weight=0 2.1433e+06 1.78703e+06 445793 1.02777e+06 960903 759255 624083 230842 356270 313233 214951 484487 112963 90875 144928 130829 204130 274768 336820 206323 71511 117879 284576 417760 148063 269697 66869 117047 94144
internal_count=2589090 2143297 1787027 445793 1027772 960903 759255 624083 230842 356270 313233 214951 484487 112963 90875 144928 130829 204130 274768 336820 206323 71511 117879 284576 417760 148063 269697 66869 117047 94144
is_linear=0
shrinkage=0.1


Tree=9
num_leaves=31
num_cat=0
split_feature=11 11 1 11 11 12 11 2 0 11 3 11 1 2 1 1 2 4 2 1 0 4 1 3 0 1 1 1 2 5
split_gain=937.48 306.747 199.338 176.285 173.567 137.33 101.774 101.577 88.7824 68.0802 66.0367 52.0607 50.5175 50.1786 56.1793 46.8266 51.3437 40.1101 38.8345 42.2009 35.8092 35.1447 34.2815 33.6452 32.5447 31.603 30.827 28.5497 34.7484 28.4015
threshold=0.38235294117647062 0.088235294117647065 24.500000000000004 0.14705882352941177 0.3235294117647059 1.0000000180025095e-35 0.20588235294117649 6.5000000000000009 34.000000000000007 1.0000000180025095e-35 1.0000000180025095e-35 0.26470588235294118 39.500000000000007 1.0000000180025095e-35 18.500000000000004 36.500000000000007 1.0000000180025095e-35 1.0000000180025095e-35 1.0000000180025095e-35 18.500000000000004 34.000000000000007 1.0000000180025095e-35 19.500000000000004 1.0000000180025095e-35 34.000000000000007 22.500000000000004 22.500000000000004 19.500000000000004 2.5000000000000004 1.0000000180025095e-35
decision_type=2 2 2 2 2 2 2 2 2 2 2 2 2 2 2 2 2 2 2 2 2 2 2 2 2 2 2 2 2 2
left_child=1 9 3 13 6 10 24 -4 11 23 15 18 -9 14 21 16 -2 26 19 -8 -11 -3 -20 -1 -5 -18 -7 -15 -29 -12
right_child=5 2 7 4 -6 17 8 12 -10 20 29 -13 -14 27 -16 -17 25 -19 22 -21 -22 -23 -24 -25 -26 -27 -28 28 -30 -31
leaf_value=0.0015699281921408223 0.0032733643138045418 -0.0018423608571337396 -0.0065737009987028791 0.0052067307078223967 -0.0042683488175207325 0.0087802697423454146 -0.0001817501922877177 -0.0018660041240607253 -0.001566655032863443 0.004675489001118375 0.0022993953107749454 0.0026731339973620235 -0.005411158169153189 -3.0746149748679149e-06 -0.0063126258496122613 -0.00434347686423525 0.0082502617528543397 0.0045531480132945494 0.0030616400587061116 -0.0043997342461830199 0.0017203948716816538 -0.0046048244006373501 0.00014759645920048054 -0.00080988160168604531 0.0016076501698104439 0.0029503057263738143 0.0027903285774549514 -0.0042758117821410785 -0.0010518450455846752 -0.00085669149418795664
leaf_weight=137344 97200 160133 87558 49151 88778 77059 143070 193263 245735 80989 105662 111199 50750 95953 51016 5936 46508 49866 64785 28434 83063 64646 107127 104690 51397 14841 9670 52660 91556 39051
leaf_count=137344 97200 160133 87558 49151 88778 77059 143070 193263 245735 80989 105662 111199 50750 95953 51016 5936 46508 49866 64785 28434 83063 64646 107127 104690 51397 14841 9670 52660 91556 39051
internal_value=0 -0.000867826 -0.00144623 -0.000925971 -7.31371e-05 0.00417236 0.000391894 -0.00365178 -3.52356e-05 0.00160655 0.00300578 0.000792549 -0.00260333 -0.00239651 -0.00331678 0.00437655 0.00470302 0.00681305 0.000183611 -0.000881058 0.00317926 -0.00263684 0.00124575 0.000540559 0.00336699 0.00696814 0.00811241 -0.00133973 -0.00222907 0.00144772
internal_weight=0 2.1433e+06 1.73721e+06 1.40564e+06 889676 445793 800898 331571 700350 406086 309198 454615 244013 515964 275795 164485 158549 136595 343416 171504 164052 224779 171912 242034 100548 61349 86729 240169 144216 144713
internal_count=2589090 2143297 1737211 1405640 889676 445793 800898 331571 700350 406086 309198 454615 244013 515964 275795 164485 158549 136595 343416 171504 164052 224779 171912 242034 100548 61349 86729 240169 144216 144713
is_linear=0
shrinkage=0.1


Tree=10
num_leaves=31
num_cat=0
split_feature=11 5 9 13 24 17 1 3 0 1 3 0 24 1 1 4 24 3 6 4 5 2 1 2 1 1 4 2 5 2
split_gain=759.358 277.284 130.78 125.052 105.482 74.2726 57.1411 60.8087 56.8125 52.7701 43.0793 40.097 39.9005 38.5886 38.5604 32.8375 32.7878 32.222 30.6492 28.3951 27.6898 27.2301 26.0516 25.1583 24.9736 24.6587 28.1298 24.4163 24.215 24.1742
threshold=0.38235294117647062 1.0000000180025095e-35 1.0000000180025095e-35 0.3000000000000001 1.0000000180025095e-35 1.0000000180025095e-35 34.500000000000007 1.0000000180025095e-35 34.000000000000007 34.500000000000007 1.0000000180025095e-35 34.000000000000007 0.3000000000000001 34.500000000000007 37.500000000000007 1.0000000180025095e-35 1.0000000180025095e-35 1.0000000180025095e-35 0.5 1.0000000180025095e-35 1.0000000180025095e-35 1.0000000180025095e-35 19.500000000000004 1.0000000180025095e-35 21.500000000000004 21.500000000000004 1.0000000180025095e-35 3.5000000000000004 1.0000000180025095e-35 1.0000000180025095e-35
decision_type=2 2 2 2 2 2 2 2 2 2 2 2 2 2 2 2 2 2 2 2 2 2 2 2 2 2 2 2 2 2
left_child=1 2 15 8 9 13 7 12 14 10 -3 28 25 16 19 17 -4 -1 -7 24 -10 22 -9 -13 -2 26 -6 -27 -5 -12
right_child=3 4 5 11 6 18 -8 21 20 -11 29 23 -14 -15 -16 -17 -18 -19 -20 -21 -22 -23 -24 -25 -26 27 -28 -29 -30 -31
leaf_value=0.0048404224572372208 0.0060457172874069749 0.00056055200608660862 0.00042191912224163889 0.0083247369262929426 -0.00099249095391817596 0.00084166160737082936 -0.0057508390623582451 -0.0041776002126731665 0.0018696615277529736 -0.0037871825632278529 -0.0030237686970533573 0.0034260601419232317 0.0026896288592737588 -0.0042128954941994812 -0.0031937864923121321 0.00022704833059728033 -0.0013107475848014914 0.0019359228962481092 0.004201437714613729 0.0016593596009358332 -0.0012962174093561259 -0.0026021921531228058 -0.0087432068340061869 0.0071719757886077335 0.0022308442388633888 -0.0056582587268388324 -0.0037062496515606856 -0.002267001477975478 0.0040107528393036581 -0.00050997555942394019
leaf_weight=81517 73039 253840 183979 65370 271688 244220 51581 92554 100573 46883 64919 67525 20422 31753 7267 38918 268755 71871 30548 30843 38090 120503 14449 24411 22430 27835 44445 89475 16245 93142
leaf_count=81517 73039 253840 183979 65370 271688 244220 51581 92554 100573 46883 64919 67525 20422 31753 7267 38918 268755 71871 30548 30843 38090 120503 14449 24411 22430 27835 44445 89475 16245 93142
internal_value=0 -0.000781044 0.000491853 0.00375513 -0.00179741 -9.8151e-05 -0.00254174 -0.0022988 0.00241787 -0.000608269 -0.000246442 0.00585282 -0.00162996 -0.00084299 0.00388969 0.00282128 -0.000606638 0.0034795 0.00121519 0.00429722 0.00100001 -0.00363312 -0.00479411 0.00442068 0.00514943 -0.00183348 -0.00137402 -0.00307167 0.00746606 -0.00154244
internal_weight=0 2.1433e+06 951561 445793 1.19174e+06 759255 732952 681371 272242 458784 411901 173551 453865 484487 133579 192306 452734 153388 274768 126312 138663 227506 107003 91936 95469 433443 316133 117310 81615 158061
internal_count=2589090 2143297 951561 445793 1191736 759255 732952 681371 272242 458784 411901 173551 453865 484487 133579 192306 452734 153388 274768 126312 138663 227506 107003 91936 95469 433443 316133 117310 81615 158061
is_linear=0
shrinkage=0.1


Tree=11
num_leaves=31
num_cat=0
split_feature=24 24 1 2 2 1 1 2 7 6 2 7 1 4 0 1 3 4 1 3 1 3 1 1 0 1 2 3 7 0
split_gain=633.573 424.577 165.633 158.839 122.932 100.377 99.4259 85.904 77.637 75.4285 71.2794 70.1291 66.6472 50.9592 50.3557 48.2075 41.8295 34.5629 32.4487 32.4366 29.0587 27.2329 25.8112 24.9124 24.8237 24.6482 25.2515 24.3423 24.0084 23.5008
threshold=0.3000000000000001 1.0000000180025095e-35 21.500000000000004 1.0000000180025095e-35 3.5000000000000004 18.500000000000004 21.500000000000004 3.5000000000000004 0.5 0.5 1.0000000180025095e-35 0.5 18.500000000000004 1.0000000180025095e-35 34.000000000000007 41.500000000000007 1.0000000180025095e-35 1.0000000180025095e-35 41.500000000000007 1.0000000180025095e-35 17.500000000000004 1.0000000180025095e-35 17.500000000000004 17.500000000000004 34.000000000000007 18.500000000000004 1.5000000000000002 1.0000000180025095e-35 1.0000000180025095e-35 42.500000000000007
decision_type=2 2 2 2 2 2 2 2 2 2 2 2 2 2 2 2 2 2 2 2 2 2 2 2 2 2 2 2 2 2
left_child=1 2 3 5 -4 9 10 -8 21 13 12 19 17 14 23 -6 -10 20 -9 28 24 -2 -19 -1 -3 -12 -27 -13 -5 -16
right_child=8 6 4 11 15 -7 7 18 16 -11 25 27 -14 -15 29 -17 -18 22 -20 -21 -22 -23 -24 -25 -26 26 -28 -29 -30 -31
leaf_value=0.0037308402308409219 0.0039322855600491596 0.00074390111630726974 -0.0058993046422776731 0.00469227931518096 0.00015602356942384887 -0.004184315201204181 -0.0062447036214789376 -0.0021190837751418664 0.0072641628291242712 0.0032759249549987306 0.0014669150474888072 0.0075579272326491004 -0.004839660545280941 -0.0014692557362112081 -0.0012052551722635681 -0.0039444895320655824 0.0040967410438501354 -0.0026218638274366404 -0.0061371907302198566 0.0010741876112867448 -0.0020641619150600522 0.0011664384987714327 -0.008048629122720934 0.00094050588114045998 -0.0018519812943844178 -0.0020959046964344591 0.00010585483283169038 0.0038864086588561303 0.0020122164513560101 0.0017465387683133675
leaf_weight=68348 70337 108544 46887 73750 233848 42618 81211 219971 85041 103209 72318 42905 74711 120781 93921 32677 81797 109502 22119 96204 149401 72080 9527 60160 55763 79223 152086 31182 61131 37838
leaf_count=68348 70337 108544 46887 73750 233848 42618 81211 219971 85041 103209 72318 42905 74711 120781 93921 32677 81797 109502 22119 96204 149401 72080 9527 60160 55763 79223 152086 31182 61131 37838
internal_value=0 -0.000576145 0.000781903 0.00151992 -0.00117739 0.000468389 -0.00194746 -0.00343031 0.00424735 0.00087786 -0.00135638 0.00333538 -0.00208153 0.000228331 0.00101612 -0.000346715 0.00571125 -0.00160535 -0.00248621 0.00247703 -0.00105485 0.00253244 -0.00305622 0.00242457 -0.000137097 -0.000144455 -0.000648245 0.00601265 0.00347762 -0.000357571
internal_weight=0 2.27984e+06 1.14546e+06 832047 313412 526875 1.13438e+06 323301 309255 484257 811075 305172 507448 381048 260267 266525 166838 432737 242090 231085 313708 142417 119029 128508 164307 303627 231309 74087 134881 131759
internal_count=2589090 2279835 1145459 832047 313412 526875 1134376 323301 309255 484257 811075 305172 507448 381048 260267 266525 166838 432737 242090 231085 313708 142417 119029 128508 164307 303627 231309 74087 134881 131759
is_linear=0
shrinkage=0.1


Tree=12
num_leaves=31
num_cat=0
split_feature=11 5 13 11 9 13 0 0 9 0 14 3 5 3 1 1 0 1 2 1 4 7 3 3 2 3 3 4 1 2
split_gain=522.391 209.557 100.372 99.9723 88.6076 77.8449 50.6191 66.5208 48.7408 48.2729 45.5527 35.9041 35.8303 30.6285 29.0042 28.6557 28.4124 26.5667 41.0363 26.8937 25.5257 25.4425 24.4355 21.6216 23.5 20.5973 20.3482 19.815 26.9655 37.3292
threshold=0.38235294117647062 1.0000000180025095e-35 1.0000000180025095e-35 0.61764705882352955 0.41666666666666669 0.3000000000000001 34.000000000000007 14.500000000000002 0.41666666666666669 34.000000000000007 1.0000000180025095e-35 1.0000000180025095e-35 1.0000000180025095e-35 1.0000000180025095e-35 35.500000000000007 37.500000000000007 14.500000000000002 23.500000000000004 1.0000000180025095e-35 19.500000000000004 1.0000000180025095e-35 0.5 1.0000000180025095e-35 1.0000000180025095e-35 1.0000000180025095e-35 1.0000000180025095e-35 1.0000000180025095e-35 1.0000000180025095e-35 20.500000000000004 2.5000000000000004
decision_type=2 2 2 2 2 2 2 2 2 2 2 2 2 2 2 2 2 2 2 2 2 2 2 2 2 2 2 2 2 2
left_child=1 2 11 9 6 8 7 -3 17 14 27 21 13 -5 16 23 -2 18 19 -4 -18 -1 -11 -6 -25 -12 -8 28 -9 -30
right_child=3 4 5 12 15 -7 26 10 -10 22 25 -13 -14 -15 -16 -17 20 -19 -20 -21 -22 -23 -24 24 -26 -27 -28 -29 29 -31
leaf_value=0.0027537141937468979 -0.002710705564769874 -0.0041495708240668278 -0.00016478974753092096 0.0070534333843259014 -0.0019282554168270679 0.0036786994843741407 -0.001468325086025425 0.00040913313385183847 -0.0018145686379279558 0.0018324520109063221 0.0024968391678060991 0.0010050543246652953 0.0017488668269582343 0.0041510522305647675 -0.0025869647929441606 -0.0056439808926424286 0.0048725614400921546 -0.0015066750724764607 0.0015767465654314252 -0.0050826038320751438 0.0014936618562255161 0.0062541348333752375 -0.00082651235754243072 -0.0050438236874251509 -0.0023470334502097173 -3.8019138920049668e-05 -0.0034036127987540406 -0.003034327014001856 -0.0046549409451114628 -0.00064337430583098071
leaf_weight=82958 6637 43153 239277 73712 238387 51132 163177 183050 173657 75551 82586 98503 28581 71752 7916 31367 87963 83960 182715 11662 29977 27697 63704 57420 73899 52391 81447 31472 28487 124900
leaf_count=82958 6637 43153 239277 73712 238387 51132 163177 183050 173657 75551 82586 98503 28581 71752 7916 31367 87963 83960 182715 11662 29977 27697 63704 57420 73899 52391 81447 31472 28487 124900
internal_value=0 -0.000647813 0.000458764 0.00311458 -0.00153138 -8.63711e-05 -0.000917246 -0.000381697 -0.000364866 0.00191612 -5.83734e-05 0.00239371 0.0049858 0.0056218 0.00328252 -0.00274206 0.00365549 0.000121502 0.000436734 -0.000393338 0.00401374 0.00362987 0.000616074 -0.00249585 -0.00352622 0.00151294 -0.00211267 -0.000634851 -0.000410392 -0.0013884
internal_weight=0 2.1433e+06 951561 445793 1.19174e+06 742403 790663 546039 691271 271748 502886 209158 174045 145464 132493 401073 124577 517614 433654 250939 117940 110655 139255 369706 131319 134977 244624 367909 336437 153387
internal_count=2589090 2143297 951561 445793 1191736 742403 790663 546039 691271 271748 502886 209158 174045 145464 132493 401073 124577 517614 433654 250939 117940 110655 139255 369706 131319 134977 244624 367909 336437 153387
is_linear=0
shrinkage=0.1


Tree=13
num_leaves=31
num_cat=0
split_feature=24 24 1 2 1 1 2 2 2 7 7 6 3 4 1 1 4 0 9 0 4 1 0 0 0 1 3 1 4 1
split_gain=448.937 311.117 118.956 111.379 88.9396 75.6788 91.9007 71.6138 60.5983 58.3071 55.8764 54.891 37.2268 36.3301 33.4719 32.0311 31.7379 30.5278 29.1948 27.9501 25.7355 21.8838 21.7197 21.5414 21.2032 21.2633 20.1153 19.0934 19.4719 18.947
threshold=0.3000000000000001 1.0000000180025095e-35 22.500000000000004 1.0000000180025095e-35 18.500000000000004 20.500000000000004 2.5000000000000004 4.5000000000000009 1.0000000180025095e-35 0.5 0.5 0.5 1.0000000180025095e-35 1.0000000180025095e-35 25.500000000000004 40.500000000000007 1.0000000180025095e-35 34.000000000000007 1.0000000180025095e-35 34.000000000000007 1.0000000180025095e-35 30.500000000000004 34.000000000000007 34.000000000000007 34.000000000000007 19.500000000000004 1.0000000180025095e-35 18.500000000000004 1.0000000180025095e-35 33.500000000000007
decision_type=2 2 2 2 2 2 2 2 2 2 2 2 2 2 2 2 2 2 2 2 2 2 2 2 2 2 2 2 2 2
left_child=1 2 3 4 10 8 -7 -4 12 18 13 19 27 17 -8 -9 21 -1 -5 29 22 23 -12 -13 25 -20 -11 28 -3 -2
right_child=11 5 7 9 -6 6 14 15 -10 26 20 16 -14 -15 -16 -17 -18 -19 24 -21 -22 -23 -24 -25 -26 -27 -28 -29 -30 -31
leaf_value=0.0018677969113551304 0.0040901724351389149 -0.00026169260311384944 -0.0048696592979912664 0.0044111724394715474 -0.0039221544715997867 -0.0055909560373978776 -0.00091195238555235019 7.6946975117317667e-05 0.00021354027616136073 0.0063198452775393293 0.0049812035916631681 0.0080040156102788237 -0.0028665385944108227 -0.00160224777905277 -0.0030310877925201095 -0.0031712908388342969 0.002802919444094653 -0.00043792225493653617 0.0035971843298101985 0.0010445319214235666 0.00079860970640616971 -0.0006747203016483947 0.0018483327930998363 0.0049531189505607883 0.00024557527713132569 0.0011120145719557164 0.003147236498665185 -0.0032064958874150925 -0.0020868902701491848 -0.0012830366161617431
leaf_weight=111617 76881 203465 43632 39823 45018 90040 152782 189375 246477 46958 44080 42958 177276 99930 145536 36154 44422 118266 63027 83004 65925 4642 44439 50173 86548 75876 34791 36790 82010 7175
leaf_count=111617 76881 203465 43632 39823 45018 90040 152782 189375 246477 46958 44080 42958 177276 99930 145536 36154 44422 118266 63027 83004 65925 4642 44439 50173 86548 75876 34791 36790 82010 7175
internal_value=0 -0.000484982 0.000677533 0.00124232 0.00032944 -0.00165886 -0.00279091 -0.00116122 -0.00106954 0.00263463 0.000724681 0.0035753 -0.00170262 -1.03878e-05 -0.00194578 -0.00044377 0.00501936 0.000681593 0.00191506 0.00234617 0.00229441 0.00602638 0.00340842 0.00636039 0.00147415 0.00223966 0.00496964 -0.00106235 -0.000786027 0.00363152
internal_weight=0 2.27984e+06 1.14546e+06 876298 529275 1.13438e+06 388358 269161 746018 347023 484257 309255 499541 329813 298318 225529 142195 229883 265274 167060 154444 97773 88519 93131 225451 138903 81749 322265 285475 84056
internal_count=2589090 2279835 1145459 876298 529275 1134376 388358 269161 746018 347023 484257 309255 499541 329813 298318 225529 142195 229883 265274 167060 154444 97773 88519 93131 225451 138903 81749 322265 285475 84056
is_linear=0
shrinkage=0.1


Tree=14
num_leaves=31
num_cat=0
split_feature=17 7 9 7 9 9 5 3 0 7 3 1 3 2 3 2 1 1 2 14 1 2 2 0 1 0 0 0 2 1
split_gain=367.973 200.521 107.521 76.0032 75.0649 59.7581 59.219 43.4289 40.1566 38.7801 30.3861 27.1004 24.8005 24.5158 22.908 21.9976 39.2589 21.6212 21.3585 21.1212 21.0715 20.8361 19.6521 17.4535 17.4149 17.2023 16.9438 16.7768 15.6402 22.9345
threshold=1.0000000180025095e-35 0.5 1.0000000180025095e-35 1.0000000180025095e-35 0.83333333333333337 0.41666666666666669 1.0000000180025095e-35 1.0000000180025095e-35 34.000000000000007 1.0000000180025095e-35 1.0000000180025095e-35 43.500000000000007 1.0000000180025095e-35 1.0000000180025095e-35 1.0000000180025095e-35 1.0000000180025095e-35 19.500000000000004 35.500000000000007 1.0000000180025095e-35 1.0000000180025095e-35 19.500000000000004 1.0000000180025095e-35 1.5000000000000002 34.000000000000007 22.500000000000004 34.000000000000007 34.000000000000007 14.500000000000002 1.0000000180025095e-35 19.500000000000004
decision_type=2 2 2 2 2 2 2 2 2 2 2 2 2 2 2 2 2 2 2 2 2 2 2 2 2 2 2 2 2 2
left_child=2 3 10 7 5 9 8 13 14 12 19 15 -4 -2 -3 16 -7 21 -10 -1 -17 -8 -22 -9 -15 -5 27 -11 29 -29
right_child=1 6 4 25 -6 11 17 23 18 26 -12 -13 -14 24 -16 20 -18 -19 -20 -21 22 -23 -24 -25 -26 -27 -28 28 -30 -31
leaf_value=0.00049502494157908461 0.0015471969586742049 0.0072758683512410167 0.00065398846779473187 0.00013706895890137205 0.0036650840702822998 -0.0024053189455294365 0.00025509085210516071 0.0013010224836902723 0.0023752335697475122 -0.0036923226933486819 -0.00033589272486677702 -0.0059449431650769914 -0.0011174268859012644 0.0045053093531081719 0.004326886851428186 5.0906922422666167e-05 -0.0066342450491825664 -0.0059934569303729422 0.0052421582119865301 0.0028602556978307141 -0.0053620104288184776 0.003600991177196082 -0.0017557140037711709 -0.0007880154334992675 0.0011750467979784371 -0.0013608948647888871 -0.002414563954194844 -0.0012316811605886629 -0.00036025719180609445 -0.0051089503936116538
leaf_weight=67846 124643 55194 197122 152885 29689 173549 44618 80831 88199 23184 115813 19495 131933 67332 50391 62764 25131 3888 36840 85125 16393 31932 193181 79161 20478 153769 135144 105252 199466 17842
leaf_count=67846 124643 55194 197122 152885 29689 173549 44618 80831 88199 23184 115813 19495 131933 67332 50391 62764 25131 3888 36840 85125 16393 31932 193181 79161 20478 153769 135144 105252 199466 17842
internal_value=0 0.00151494 -0.000938151 0.000551814 -0.00130678 -0.00142028 0.00361761 0.00151175 0.00443247 -0.00089275 0.000886079 -0.00229135 -5.62519e-05 0.00244883 0.00586845 -0.00214013 -0.00294024 0.00128131 0.00321991 0.00181122 -0.00155643 0.0016508 -0.0020378 0.000267406 0.00372867 -0.000614072 -0.00146514 -0.00109403 -0.000907273 -0.00179368
internal_weight=0 990161 1.59893e+06 679099 1.33014e+06 1.30046e+06 311062 372445 230624 809943 268784 490513 329055 212453 105585 471018 198680 80438 125039 152971 272338 76550 209574 159992 87810 306654 480888 345744 322560 123094
internal_count=2589090 990161 1598929 679099 1330145 1300456 311062 372445 230624 809943 268784 490513 329055 212453 105585 471018 198680 80438 125039 152971 272338 76550 209574 159992 87810 306654 480888 345744 322560 123094
is_linear=0
shrinkage=0.1


Tree=15
num_leaves=31
num_cat=0
split_feature=5 13 13 9 3 1 25 1 4 0 0 3 4 3 25 2 1 4 3 14 1 25 4 7 7 1 3 0 14 4
split_gain=324.503 208.508 151.038 78.0771 45.9372 42.3924 43.327 35.6856 40.7564 31.6264 33.5006 30.728 26.3971 25.7618 25.258 25.2446 32.9187 23.1689 22.9793 22.6594 21.2121 18.4835 19.2631 18.201 20.0397 17.2632 16.9555 16.6368 15.8703 15.4565
threshold=1.0000000180025095e-35 0.3000000000000001 1.0000000180025095e-35 1.0000000180025095e-35 1.0000000180025095e-35 41.500000000000007 1.0000000180025095e-35 35.500000000000007 1.0000000180025095e-35 34.000000000000007 14.500000000000002 1.0000000180025095e-35 1.0000000180025095e-35 1.0000000180025095e-35 1.0000000180025095e-35 1.0000000180025095e-35 22.500000000000004 1.0000000180025095e-35 1.0000000180025095e-35 1.0000000180025095e-35 17.500000000000004 1.0000000180025095e-35 1.0000000180025095e-35 0.5 1.0000000180025095e-35 17.500000000000004 1.0000000180025095e-35 34.000000000000007 1.0000000180025095e-35 1.0000000180025095e-35
decision_type=2 2 2 2 2 2 2 2 2 2 2 2 2 2 2 2 2 2 2 2 2 2 2 2 2 2 2 2 2 2
left_child=1 2 4 12 15 6 9 8 13 10 -5 21 18 14 23 27 -17 19 28 -12 -10 22 -3 24 -4 -19 -11 -1 -2 -13
right_child=3 11 7 5 -6 -7 -8 -9 20 26 17 29 -14 -15 -16 16 -18 25 -20 -21 -22 -23 -24 -25 -26 -27 -28 -29 -30 -31
leaf_value=0.0037508170412195599 0.00063724639786289622 0.0066052052513846261 0.0018905287401505409 -0.0037182246314485627 0.0011367589023793582 -0.0044130172870739002 -0.0022731779264812315 -0.0033674942763841868 -0.0014999736790448914 -0.0012091775730680174 -0.00044342562200547827 0.0036647092482363884 -0.001919830868024687 -0.00046451605087615122 -0.00072185265965958091 0.0063327402447006034 0.0014310429644663865 -0.0016186274905506883 -0.00030286126915371453 0.0012116332182463552 -0.0067642562588203572 -0.0018084224805639208 0.0036930022907678325 0.0031380243960082163 -1.7713507132921928e-05 -0.0075521068149271885 -0.0029945305887687911 0.0012422751444056269 0.0030404350647884903 0.00084016646304782355
leaf_weight=53584 48797 64407 108816 28944 160486 46461 329608 33855 88275 149809 287429 64115 34544 279040 80679 49551 18937 39874 71752 116150 8381 3507 35087 44733 111346 5591 82481 52186 62902 27763
leaf_count=53584 48797 64407 108816 28944 160486 46461 329608 33855 88275 149809 287429 64115 34544 279040 80679 49551 18937 39874 71752 116150 8381 3507 35087 44733 111346 5591 82481 52186 62902 27763
internal_value=0 0.00112803 0.000589333 -0.00111109 0.00235744 -0.00145767 -0.00132563 -0.000194463 -4.55275e-05 -0.000885914 -0.000420737 0.00414074 0.000616049 0.000250177 0.000827268 0.00348166 0.00497742 -0.000208192 0.00109356 3.29002e-05 -0.00195644 0.0053267 0.0055782 0.00129908 0.000925443 -0.00234829 -0.00184312 0.00251312 0.00199057 0.00281121
internal_weight=0 1.28475e+06 1.08987e+06 1.30434e+06 334744 1.08635e+06 1.03989e+06 755125 721270 710278 477988 194879 217995 624614 345574 174258 68488 449044 183451 403579 96656 103001 99494 264895 220162 45465 232290 105770 111699 91878
internal_count=2589090 1284748 1089869 1304342 334744 1086347 1039886 755125 721270 710278 477988 194879 217995 624614 345574 174258 68488 449044 183451 403579 96656 103001 99494 264895 220162 45465 232290 105770 111699 91878
is_linear=0
shrinkage=0.1


Tree=16
num_leaves=31
num_cat=0
split_feature=24 24 1 2 2 1 1 2 6 2 6 0 4 1 4 0 1 4 4 1 1 0 2 1 1 0 0 0 3 1
split_gain=283.236 202.361 77.9147 95.092 78.5999 57.729 51.9872 66.7162 42.9012 42.4958 41.9859 39.236 31.8615 31.2698 30.1462 27.2362 27.0219 26.6464 26.4075 24.5063 24.4201 24.2962 23.4 26.4259 25.081 22.9335 20.8636 20.5513 19.1612 18.4829
threshold=0.3000000000000001 1.0000000180025095e-35 21.500000000000004 1.0000000180025095e-35 3.5000000000000004 18.500000000000004 20.500000000000004 2.5000000000000004 0.5 1.0000000180025095e-35 0.5 34.000000000000007 1.0000000180025095e-35 17.500000000000004 1.0000000180025095e-35 34.000000000000007 29.500000000000004 1.0000000180025095e-35 1.0000000180025095e-35 24.500000000000004 29.500000000000004 34.000000000000007 1.0000000180025095e-35 18.500000000000004 22.500000000000004 14.500000000000002 42.500000000000007 34.000000000000007 1.0000000180025095e-35 17.500000000000004
decision_type=2 2 2 2 2 2 2 2 2 2 2 2 2 2 2 2 2 2 2 2 2 2 2 2 2 2 2 2 2 2
left_child=1 2 3 5 -4 10 9 -8 21 13 12 16 15 18 -15 29 17 28 27 -9 -6 25 23 -13 -24 -5 -17 -3 -2 -1
right_child=11 6 4 8 20 -7 7 19 -10 -11 -12 22 -14 14 -16 26 -18 -19 -20 -21 -22 -23 24 -25 -26 -27 -28 -29 -30 -31
leaf_value=0.0028547471379282209 0.0066732128642315036 0.00094804466756412832 -0.0045671444596915084 -0.0026483068816019941 0.00066994896326263422 -0.0032835424039327956 -0.0046559436363599492 -0.00053144743736572436 0.0052430922275213815 0.00023097042369856275 0.0023445849588398012 0.0011879650495279495 -0.0012714697746858637 -0.0019561486944963853 -0.0068679920553765391 -0.0011152147614136784 -0.00027096169673403522 0.0021183844059345287 -0.0018582587771435689 -0.0023565487568922789 -0.0012765765649933726 0.00072443276909196124 0.0047122303004352144 -0.0063364554245311407 0.00010664182298388242 0.0029884409597029133 0.0016660340068120603 -0.0014139082261478914 0.0039135776330513393 0.00045130398085962796
leaf_weight=68348 48885 108544 46887 7578 157371 42618 90040 131810 46971 246477 103209 96006 120781 212456 13276 93921 13551 37114 109502 166508 109154 98707 40197 4906 16752 151916 37838 55763 51844 60160
leaf_count=68348 48885 108544 46887 7578 157371 42618 90040 131810 46971 246477 103209 96006 120781 212456 13276 93921 13551 37114 109502 166508 109154 98707 40197 4906 16752 151916 37838 55763 51844 60160
internal_value=0 -0.000385218 0.000552346 0.00105852 -0.000791459 0.000244914 -0.00133194 -0.00227021 0.00246321 -0.000843503 0.000555442 0.00283984 7.08431e-05 -0.00137366 -0.00224503 0.000693765 0.00399002 0.00440891 -0.000655283 -0.00155014 -0.000127241 0.0019575 0.00173678 0.000822153 0.00335746 0.00272062 -0.000316507 0.000146438 0.00525286 0.00172959
internal_weight=0 2.27984e+06 1.14546e+06 832047 313412 526875 1.13438e+06 388358 305172 746018 484257 309255 381048 499541 225732 260267 151394 137843 273809 298318 266525 258201 157861 100912 56949 159494 131759 164307 100729 128508
internal_count=2589090 2279835 1145459 832047 313412 526875 1134376 388358 305172 746018 484257 309255 381048 499541 225732 260267 151394 137843 273809 298318 266525 258201 157861 100912 56949 159494 131759 164307 100729 128508
is_linear=0
shrinkage=0.1


Tree=17
num_leaves=31
num_cat=0
split_feature=5 7 8 0 9 1 4 3 1 3 9 2 7 9 2 1 3 6 1 2 2 1 1 3 1 0 6 4 0 1
split_gain=241.097 163.594 71.327 55.5392 59.2345 53.9864 44.9274 39.1538 31.575 33.2307 31.4785 30.7385 24.3761 24.9999 23.0536 27.3864 22.7429 19.6603 19.6345 18.9871 18.2434 20.8023 20.118 17.8869 17.7176 16.908 15.9254 15.2119 14.99 14.6872
threshold=1.0000000180025095e-35 0.5 1.0000000180025095e-35 14.500000000000002 1.0000000180025095e-35 22.500000000000004 1.0000000180025095e-35 1.0000000180025095e-35 45.500000000000007 1.0000000180025095e-35 0.83333333333333337 1.0000000180025095e-35 1.0000000180025095e-35 0.83333333333333337 1.0000000180025095e-35 18.500000000000004 1.0000000180025095e-35 0.5 20.500000000000004 4.5000000000000009 1.0000000180025095e-35 19.500000000000004 20.500000000000004 1.0000000180025095e-35 18.500000000000004 34.000000000000007 0.6428571428571429 1.0000000180025095e-35 31.500000000000004 15.500000000000002
decision_type=2 2 2 2 2 2 2 2 2 2 2 2 2 2 2 2 2 2 2 2 2 2 2 2 2 2 2 2 2 2
left_child=1 2 7 -2 14 6 10 17 9 12 16 24 -6 26 15 28 -3 27 -16 -7 21 -4 -22 -8 -11 -13 -14 -1 -5 -12
right_child=3 5 20 4 8 19 23 -9 -10 11 29 25 13 -15 18 -17 -18 -19 -20 -21 22 -23 -24 -25 -26 -27 -28 -29 -30 -31
leaf_value=0.0019358406727182566 -0.0037169831813837883 0.0043883644105291077 -0.0010608043076061194 0.0014545857886031689 0.00026721198017859389 -0.0054986055360065102 0.0025736749005825905 9.8578426165344432e-05 -0.0044579961744292173 -0.0022603724733994703 -0.0095227018712486754 -0.00045354335116957339 -0.00092467801426161496 0.0040854220546627648 0.0032365891291461866 -0.005161216895327142 0.0021691347674956322 0.0039758274468973259 0.00047459261232303161 0.00028784836045448332 0.0010818266964701408 -0.0044586365259877943 -0.0008566296693868653 -6.8998116080112705e-05 -0.0047698306010609667 -0.0025295877894732539 -0.0028566996577920195 -0.00019760983535469434 -0.0010862915653628261 0.0064357579174219859
leaf_weight=180289 69084 97105 179054 48299 217185 6714 58557 222546 27478 113066 584 149491 373284 9339 49483 10471 88052 38984 53636 36491 88825 20034 134775 45524 37455 53188 48170 41026 44713 46188
leaf_count=180289 69084 97105 179054 48299 217185 6714 58557 222546 27478 113066 584 149491 373284 9339 49483 10471 88052 38984 53636 36491 88825 20034 134775 45524 37455 53188 48170 41026 44713 46188
internal_value=0 0.000972319 0.000242079 -0.000957713 -0.000803396 0.00271607 0.00314392 0.00107247 -0.00111374 -0.00102195 0.00391854 -0.00180229 -0.000596604 -0.0010321 0.000741774 -0.000312703 0.003333 0.00190511 0.00179997 -0.000611359 -0.000706489 -0.00140272 -8.65787e-05 0.0014178 -0.00288482 -0.000998349 -0.0011455 0.00154035 0.000233128 0.0062365
internal_weight=0 1.28475e+06 905533 1.30434e+06 1.23526e+06 379215 336010 482845 1.02866e+06 1.00118e+06 231929 353200 647978 430793 206602 103483 185157 260299 103119 43205 422688 199088 223600 104081 150521 202679 421454 221315 93012 46772
internal_count=2589090 1284748 905533 1304342 1235258 379215 336010 482845 1028656 1001178 231929 353200 647978 430793 206602 103483 185157 260299 103119 43205 422688 199088 223600 104081 150521 202679 421454 221315 93012 46772
is_linear=0
shrinkage=0.1


Tree=18
num_leaves=31
num_cat=0
split_feature=17 6 13 0 0 9 1 9 9 0 0 0 0 3 4 1 2 7 2 2 1 1 2 1 1 4 9 4 9 2
split_gain=217.532 112.777 62.8281 53.4086 44.1184 37.2019 35.5121 33.6592 32.4539 29.5717 34.641 27.4425 24.3614 20.6118 19.6345 34.9835 43.3241 18.5895 18.4511 17.8984 26.8977 21.2439 15.7111 23.856 15.2617 15.1397 14.733 13.5358 13.1063 12.902
threshold=1.0000000180025095e-35 0.5 1.0000000180025095e-35 34.000000000000007 14.500000000000002 0.41666666666666669 35.500000000000007 0.83333333333333337 1.0000000180025095e-35 34.000000000000007 14.500000000000002 34.000000000000007 14.500000000000002 1.0000000180025095e-35 1.0000000180025095e-35 19.500000000000004 1.5000000000000002 0.6428571428571429 1.0000000180025095e-35 1.0000000180025095e-35 18.500000000000004 20.500000000000004 1.0000000180025095e-35 17.500000000000004 17.500000000000004 1.0000000180025095e-35 0.83333333333333337 1.0000000180025095e-35 0.41666666666666669 2.5000000000000004
decision_type=2 2 2 2 2 2 2 2 2 2 2 2 2 2 2 2 2 2 2 2 2 2 2 2 2 2 2 2 2 2
left_child=2 3 19 4 -2 9 11 17 25 10 -4 12 -3 -5 15 22 -17 27 -13 20 -1 -21 23 -12 -16 -6 28 -7 -10 -23
right_child=1 6 5 13 8 7 -8 -9 26 -11 14 18 -14 -15 24 16 -18 -19 -20 21 -22 29 -24 -25 -26 -27 -28 -29 -30 -31
leaf_value=0.00042592198330075517 -0.0030632498890177588 -0.0018246351640699692 -0.0028788485223113394 0.00032600548501714248 0.0039066845271124809 -0.0014714319878838418 -0.0042187236849742194 0.0024404117179429481 0.0013607914311270111 -0.0015721790392042051 0.0017743031025492233 0.0014342641251547262 0.0047445429329018669 -0.0011836300650548102 -0.0011484033191616935 -0.0034349989320035823 -7.3432436084418099e-05 -0.0037288778158857689 0.0040687714607988233 0.0030836953433051317 -0.0038872723248037006 -0.0042356631820077359 0.0020589113139596236 -0.00067562584992368548 -0.0059915314554456782 0.00088010376786598437 0.0043941663251147265 -0.0034036499063506394 -0.00028471647900167395 0.00083187384259949594
leaf_weight=113452 20853 5968 46957 223307 74806 352396 6565 18618 175338 236245 71343 88034 104371 152007 58422 45885 233144 49377 38085 52669 16570 5407 90012 89741 7322 21215 12750 40413 66862 70956
leaf_count=113452 20853 5968 46957 223307 74806 352396 6565 18618 175338 236245 71343 88034 104371 152007 58422 45885 233144 49377 38085 52669 16570 5407 90012 89741 7322 21215 12750 40413 66862 70956
internal_value=0 0.00116479 -0.000721317 0.000556127 0.00140557 -0.000996946 0.00303605 -0.00172473 0.00167108 -0.000615444 -0.000263835 0.00323747 0.00438923 -0.000285416 -5.77606e-05 0.000144389 -0.000626226 -0.0019001 0.00222982 0.000704289 -0.000123751 0.00153868 0.00100073 0.000409431 -0.00168779 0.00323799 0.00108095 -0.00167022 0.000906531 0.000473059
internal_weight=0 990161 1.59893e+06 747138 371824 1.33988e+06 243023 460804 350971 879071 642826 236458 110339 375314 595869 530125 279029 442186 126119 259054 130022 129032 251096 161084 65744 96021 254950 392809 242200 76363
internal_count=2589090 990161 1598929 747138 371824 1339875 243023 460804 350971 879071 642826 236458 110339 375314 595869 530125 279029 442186 126119 259054 130022 129032 251096 161084 65744 96021 254950 392809 242200 76363
is_linear=0
shrinkage=0.1


Tree=19
num_leaves=31
num_cat=0
split_feature=24 24 5 3 1 2 3 3 0 0 1 6 1 2 10 5 4 1 0 13 4 7 7 0 2 1 2 1 7 7
split_gain=182.036 135.206 52.2669 41.0384 34.6382 38.1204 33.0325 28.9874 27.0309 27.784 25.574 24.8433 22.7748 26.5661 19.1538 17.8122 17.7087 15.3633 14.6799 14.0064 13.9915 13.9856 18.3495 13.8243 13.249 13.1756 12.3899 15.701 12.2754 16.287
threshold=0.3000000000000001 1.0000000180025095e-35 1.0000000180025095e-35 1.0000000180025095e-35 21.500000000000004 3.5000000000000004 1.0000000180025095e-35 1.0000000180025095e-35 31.500000000000004 14.500000000000002 25.500000000000004 0.5 37.500000000000007 1.0000000180025095e-35 0.22500000000000003 1.0000000180025095e-35 1.0000000180025095e-35 25.500000000000004 34.000000000000007 1.0000000180025095e-35 1.0000000180025095e-35 0.5 1.0000000180025095e-35 34.000000000000007 7.5000000000000009 21.500000000000004 1.5000000000000002 19.500000000000004 0.6428571428571429 0.85714285714285732
decision_type=2 2 2 2 2 2 2 2 2 2 2 2 2 2 2 2 2 2 2 2 2 2 2 2 2 2 2 2 2 2
left_child=1 2 3 10 6 -6 14 12 9 -4 11 16 13 15 21 -2 23 -7 -5 -11 -9 22 -3 -1 -19 -15 27 -8 -23 -30
right_child=7 4 8 18 5 17 26 20 -10 19 -12 -13 -14 25 -16 -17 -18 24 -20 -21 -22 28 -24 -25 -26 -27 -28 -29 29 -31
leaf_value=0.0029004583580938608 0.0031517425419896879 0.00051715397071239644 -0.0030023571813914429 0.00083659443811395263 -0.0038327164814612766 -0.00037820646174618346 -0.0016434805795922883 0.0018128959590625151 -0.0010791623560987404 0.0019177325402482592 -0.00081319780839558776 0.0038988926070579323 -0.0034655438287970772 0.0062299132379854223 -0.0018965993570283363 -0.00018615665963006133 -8.1749525636253862e-05 -0.0043196367084356643 -0.00058594186155457376 0.00023662607553099648 -0.0004822204642152795 0.0029393960698659936 -0.00083332130377314145 0.0011693457884939162 -0.0015955086499208114 0.003005121361193212 -0.00020792312011423412 -0.0043697848276324043 -0.0025620501473878118 0.0022434303082888834
leaf_weight=99633 72901 177543 22549 167697 81211 99852 206758 119744 233931 65919 32568 63106 4905 38116 63543 20478 46590 20935 127848 199712 34133 27585 232196 85906 121303 18978 51622 23528 13359 14941
leaf_count=99633 72901 177543 22549 167697 81211 99852 206758 119744 233931 65919 32568 63106 4905 38116 63543 20478 46590 20935 127848 199712 34133 27585 232196 85906 121303 18978 51622 23528 13359 14941
internal_value=0 -0.000308825 0.000457538 0.00107575 -0.00108267 -0.00195791 -0.000733798 0.00227666 -0.000280549 0.000367728 0.00184619 0.00213955 0.00324013 0.00345872 -0.000268 0.00241974 0.00166126 -0.00132899 0.000221228 0.00065381 0.00130379 -4.5747e-05 -0.00024815 0.00209894 -0.00199645 0.00515799 -0.00160814 -0.00192202 0.00143824 -2.49942e-05
internal_weight=0 2.27984e+06 1.14546e+06 623348 1.13438e+06 323301 811075 309255 522111 288180 327803 295235 155378 150473 529167 93379 232129 242090 295545 265631 153877 465624 409739 185539 142238 57094 281908 230286 55885 28300
internal_count=2589090 2279835 1145459 623348 1134376 323301 811075 309255 522111 288180 327803 295235 155378 150473 529167 93379 232129 242090 295545 265631 153877 465624 409739 185539 142238 57094 281908 230286 55885 28300
is_linear=0
shrinkage=0.1


Tree=20
num_leaves=31
num_cat=0
split_feature=17 13 13 14 0 9 0 12 3 1 0 0 0 0 1 0 0 4 1 7 0 11 2 1 1 4 3 4 7 3
split_gain=157.909 82.7228 55.3876 47.2615 47.4793 30.3534 28.211 22.7698 21.5437 21.0387 20.2627 20.0829 18.5799 24.4391 18.2714 18.8547 16.4332 16.05 17.6702 15.8831 14.6885 13.4381 13.0252 14.2437 12.9764 12.8796 12.7402 12.465 12.0753 11.6675
threshold=1.0000000180025095e-35 0.3000000000000001 1.0000000180025095e-35 1.0000000180025095e-35 34.000000000000007 0.41666666666666669 34.000000000000007 1.0000000180025095e-35 1.0000000180025095e-35 15.500000000000002 14.500000000000002 34.000000000000007 14.500000000000002 25.500000000000004 39.500000000000007 34.000000000000007 14.500000000000002 1.0000000180025095e-35 21.500000000000004 0.5 14.500000000000002 0.3235294117647059 1.0000000180025095e-35 18.500000000000004 23.500000000000004 1.0000000180025095e-35 1.0000000180025095e-35 1.0000000180025095e-35 1.0000000180025095e-35 1.0000000180025095e-35
decision_type=2 2 2 2 2 2 2 2 2 2 2 2 2 2 2 2 2 2 2 2 2 2 2 2 2 2 2 2 2 2
left_child=3 2 6 5 8 7 10 12 19 -3 -2 16 -1 -14 15 20 -11 18 29 28 -4 -7 23 -8 25 -18 -6 -15 -5 -12
right_child=1 9 14 4 26 21 22 -9 -10 11 17 -13 13 27 -16 -17 24 -19 -20 -21 -22 -23 -24 -25 -26 -27 -28 -29 -30 -31
leaf_value=-0.0025691074249463933 -0.0024421404012192529 -0.001367439948064055 -0.0024006509642368 0.0020258252648202991 -0.00032856806697993419 -0.001449009638376118 0.00028418676599912407 -0.0039574009388378076 6.775493234150702e-06 -0.0022348307452465803 0.0052165028295771349 0.0021554684246156953 0.00045764358967821249 -0.00067067102573709113 -0.0038893469430387167 -0.00062985013487793016 0.0059313226241153229 0.00085032750919155275 0.0011393402719465243 0.0031990805532501501 0.00081759057925583133 -0.0030878575498870884 0.001899096930588299 -0.0048420264322262237 0.00061475853682994852 0.0030358313211004267 -0.0019084564284784459 -0.00273255620652532 7.946621805567611e-05 0.0028552259078948061
leaf_weight=40429 7567 11012 15123 65718 118562 333880 94280 19517 139393 3690 45664 96039 231389 358688 12417 241761 48320 30754 25705 49047 227955 58853 55555 5751 7418 22523 89626 31930 61897 38627
leaf_count=40429 7567 11012 15123 65718 118562 333880 94280 19517 139393 3690 45664 96039 231389 358688 12417 241761 48320 30754 25705 49047 227955 58853 55555 5751 7418 22523 89626 31930 61897 38627
internal_value=0 0.000992412 0.000548463 -0.000614566 0.000163853 -0.000994287 0.00161204 -0.000590981 0.000936235 0.00287427 0.00259885 0.00313669 -0.000491798 -0.000356778 -0.000101554 -4.54663e-06 0.0042866 0.00286986 0.00343451 0.00166961 0.000617369 -0.0016946 0.000671339 -1.05304e-05 0.00459409 0.00501076 -0.00100872 -0.000839214 0.00108178 0.00413443
internal_weight=0 990161 801159 1.59893e+06 524243 1.07469e+06 303903 681953 316055 189002 148317 177990 662436 622007 497256 484839 81951 140750 109996 176662 243078 392733 155586 100031 78261 70843 208188 390618 127615 84291
internal_count=2589090 990161 801159 1598929 524243 1074686 303903 681953 316055 189002 148317 177990 662436 622007 497256 484839 81951 140750 109996 176662 243078 392733 155586 100031 78261 70843 208188 390618 127615 84291
is_linear=0
shrinkage=0.1


Tree=21
num_leaves=31
num_cat=0
split_feature=5 13 13 3 1 2 11 11 4 1 4 1 2 2 3 11 1 12 0 2 14 11 1 1 6 4 0 1 0 0
split_gain=141.92 95.1691 69.2295 36.9023 36.7357 27.7197 26.8814 29.6916 24.3365 20.8888 20.8395 23.9583 40.169 20.6966 20.4838 18.875 18.1035 17.0431 15.4062 13.9988 13.4829 24.5912 13.2366 12.8594 11.7955 11.755 11.1407 20.9424 10.9347 11.4383
threshold=1.0000000180025095e-35 0.3000000000000001 1.0000000180025095e-35 1.0000000180025095e-35 32.500000000000007 1.0000000180025095e-35 0.088235294117647065 0.14705882352941177 1.0000000180025095e-35 18.500000000000004 1.0000000180025095e-35 20.500000000000004 2.5000000000000004 1.0000000180025095e-35 1.0000000180025095e-35 0.20588235294117649 15.500000000000002 1.0000000180025095e-35 34.000000000000007 12.500000000000002 1.0000000180025095e-35 0.3235294117647059 36.500000000000007 17.500000000000004 0.5 1.0000000180025095e-35 28.500000000000004 17.500000000000004 34.000000000000007 14.500000000000002
decision_type=2 2 2 2 2 2 2 2 2 2 2 2 2 2 2 2 2 2 2 2 2 2 2 2 2 2 2 2 2 2
left_child=1 2 8 4 6 9 -2 -8 14 25 11 13 -13 26 22 -9 -3 -18 20 -6 21 -17 24 -12 -1 -5 27 -4 29 -7
right_child=3 16 10 5 19 28 7 15 -10 -11 23 12 -14 -15 -16 18 17 -19 -20 -21 -22 -23 -24 -25 -26 -27 -28 -29 -30 -31
leaf_value=0.0025430712954465722 0.001444203456210593 -0.00095904292290337515 0.0028168480305116646 -0.001250370436465585 -0.0041320347764404229 -0.0029666176608115057 -0.001199693909729297 0.0027623989751566435 -1.880065074263302e-05 -0.0041795840382097818 -0.0011597223051146345 -0.0035947144726353355 -0.00014897041414241869 0.0013440457413561374 0.0011388897607532294 0.0006447685788790688 0.0021373489699952589 0.0040748197968112354 -0.00090703857009671288 -0.001399244388216382 0.0015518146885875909 -0.0020860160979038673 -0.0020804429397262426 -0.0052213616566652325 0.0047485036367775069 -0.0032362296481348767 -0.00048232935075053071 -0.00054153414560758901 -0.0018934276300517445 -0.00018672575342397989
leaf_weight=93702 96293 12134 33564 113870 28338 16093 251026 26536 74190 46932 88275 41486 183370 170855 129029 133235 98575 84170 124673 55370 77302 43823 5104 8550 32719 40377 187466 41559 66039 184435
leaf_count=93702 96293 12134 33564 113870 28338 16093 251026 26536 74190 46932 88275 41486 183370 170855 129029 133235 98575 84170 124673 55370 77302 43823 5104 8550 32719 40377 187466 41559 66039 184435
internal_value=0 0.000745994 0.000382051 -0.000734788 -0.000337067 -0.00144614 -0.000116112 -0.00034494 0.0015791 -0.00233228 -0.000148596 5.28765e-05 -0.000784711 0.000487389 0.00203408 0.000184108 0.00278137 0.00302972 3.60237e-06 -0.00232439 0.000449947 -3.11183e-05 0.00291229 -0.00151838 0.00311386 -0.00177021 -7.00002e-05 0.000958948 -0.000777368 -0.000409821
internal_weight=0 1.28475e+06 1.08987e+06 1.30434e+06 836596 467746 752888 656595 334744 201179 755125 658300 224856 433444 260554 405569 194879 182745 379033 83708 254360 177058 131525 96825 126421 154247 262589 75123 266567 200528
internal_count=2589090 1284748 1089869 1304342 836596 467746 752888 656595 334744 201179 755125 658300 224856 433444 260554 405569 194879 182745 379033 83708 254360 177058 131525 96825 126421 154247 262589 75123 266567 200528
is_linear=0
shrinkage=0.1


Tree=22
num_leaves=31
num_cat=0
split_feature=5 7 7 1 4 1 2 2 1 1 9 1 3 2 2 4 1 2 1 2 2 1 1 0 11 4 24 2 1 0
split_gain=114.955 84.7032 41.4414 34.7857 33.6175 34.285 90.6153 29.6491 25.9703 25.1255 24.7251 23.5886 22.5314 21.6741 20.576 19.2002 17.7101 15.7525 14.5024 15.6324 14.1997 15.0399 13.8349 13.5392 13.2191 12.0748 12.8279 11.9471 11.8278 13.3652
threshold=1.0000000180025095e-35 0.5 1.0000000180025095e-35 33.500000000000007 1.0000000180025095e-35 19.500000000000004 1.5000000000000002 1.0000000180025095e-35 17.500000000000004 17.500000000000004 0.83333333333333337 22.500000000000004 1.0000000180025095e-35 2.5000000000000004 5.5000000000000009 1.0000000180025095e-35 25.500000000000004 7.5000000000000009 20.500000000000004 2.5000000000000004 1.0000000180025095e-35 18.500000000000004 48.500000000000007 30.000000000000004 0.088235294117647065 1.0000000180025095e-35 0.3000000000000001 1.0000000180025095e-35 15.500000000000002 34.000000000000007
decision_type=2 2 2 2 2 2 2 2 2 2 2 2 2 2 2 2 2 2 2 2 2 2 2 2 2 2 2 2 2 2
left_child=1 2 12 10 5 7 -7 9 -6 23 15 13 25 -8 -13 18 -16 -18 20 -20 21 28 -19 -2 -9 26 -1 -4 -3 -30
right_child=4 3 27 -5 8 6 11 24 -10 -11 -12 14 -14 -15 16 -17 17 22 19 -21 -22 -23 -24 -25 -26 -27 -28 -29 29 -31
leaf_value=0.001461930662158677 0.0013667439736328585 -0.0083308232692195314 -0.0011405120675872804 -0.0032911203426983157 -0.0016822407676842111 -0.0037677093992221238 -0.0012432266656757604 0.0031993250188804413 -0.0062139808893049335 -0.0012219936207595429 0.0036328886606966336 -0.0026011084897458142 4.0114527257749724e-05 0.0011419265216750043 0.00091170170966488491 0.00026383326514790135 -0.004048279075704821 -0.00052989867582767128 -0.0042852128188546525 0.0012697286367839788 0.0037545717072163206 -0.0023501795201079315 -0.0036752371169870221 -0.00042032709892828783 0.00076109307544221076 3.2100574078761282e-05 0.00389741332275792 -7.5432476651828662e-05 0.0035796756822499402 0.0011958673364989578
leaf_weight=184726 81853 1055 199088 12363 120465 99446 53999 25691 14129 195327 81932 62958 222546 129386 60601 73062 15977 176042 5813 39424 63282 7867 15191 87943 165334 51079 24494 223600 44383 50034
leaf_count=184726 81853 1055 199088 12363 120465 99446 53999 25691 14129 195327 81932 62958 222546 129386 60601 73062 15977 176042 5813 39424 63282 7867 15191 87943 165334 51079 24494 223600 44383 50034
internal_value=0 0.000671395 0.000145945 0.00192612 -0.000661309 -0.000489101 -0.00100452 7.95604e-05 -0.00215796 -0.000448564 0.00210195 -0.00047007 0.000778898 0.000439601 -0.000974411 0.00166171 -0.000592001 -0.00103178 0.00214378 0.000555913 0.00257488 0.00185247 -0.000779755 0.00044116 0.00108901 0.00141053 0.00174706 -0.00057709 0.00219878 0.00231643
internal_weight=0 1.28475e+06 905533 379215 1.30434e+06 1.16975e+06 613600 556148 134594 365123 366852 514154 482845 183385 330769 284920 267811 207210 211858 45237 166621 103339 191233 169796 191025 260299 209220 422688 95472 94417
internal_count=2589090 1284748 905533 379215 1304342 1169748 613600 556148 134594 365123 366852 514154 482845 183385 330769 284920 267811 207210 211858 45237 166621 103339 191233 169796 191025 260299 209220 422688 95472 94417
is_linear=0
shrinkage=0.1


Tree=23
num_leaves=31
num_cat=0
split_feature=17 6 0 0 14 0 0 11 11 11 1 0 9 0 0 7 2 1 3 7 5 0 1 4 10 0 1 3 4 1
split_gain=103.835 57.9533 37.4544 34.2528 48.3442 32.2337 26.0445 24.3636 29.281 27.2452 20.6959 19.2129 19.0187 16.9022 14.6438 13.968 12.7254 12.5208 11.1061 10.6276 10.0114 9.71004 9.10552 9.02173 8.87436 8.86767 8.82063 8.69947 8.50792 8.22858
threshold=1.0000000180025095e-35 0.5 14.500000000000002 34.000000000000007 1.0000000180025095e-35 34.000000000000007 14.500000000000002 0.3235294117647059 0.14705882352941177 0.088235294117647065 30.500000000000004 34.000000000000007 1.0000000180025095e-35 51.500000000000007 14.500000000000002 0.5 1.0000000180025095e-35 32.500000000000007 1.0000000180025095e-35 1.0000000180025095e-35 1.0000000180025095e-35 12.500000000000002 18.500000000000004 1.0000000180025095e-35 0.075000000000000025 42.500000000000007 27.500000000000004 1.0000000180025095e-35 1.0000000180025095e-35 31.500000000000004
decision_type=2 2 2 2 2 2 2 2 2 2 2 2 2 2 2 2 2 2 2 2 2 2 2 2 2 2 2 2 2 2
left_child=2 5 21 4 7 6 -2 8 9 -4 11 14 28 18 -3 19 22 23 -7 -6 -5 -1 25 -11 26 -13 27 -14 -8 -17
right_child=1 10 3 20 15 13 12 -9 -10 17 -12 16 24 -15 -16 29 -18 -19 -20 -21 -22 -23 -24 -25 -26 -27 -28 -29 -30 -31
leaf_value=-0.0013590642973771304 -0.0024051992185499648 -0.0015783021538036263 0.0012621066435752849 -0.00069303143851483587 0.0012192730606650189 -4.6094146105354753e-05 0.0029331115601759165 -0.002075888394889815 0.00043642320293286541 -0.00078698254606207434 -0.0023428225855734413 0.00040220458175690163 0.0021651560688566956 0.0016242721880621301 0.0035875216427998118 0.0023513163627698046 0.0030472036349949473 -0.0031572310571000295 -0.0012209687851514157 -0.00019387429054412567 -0.0017173512560779989 -0.003596771871278619 -0.0046380549832848754 -0.002339275816836454 4.591615243046182e-05 0.0026997428664217206 -0.0012064130073547829 0.00058199588367352972 0.00066426572880828047 -0.001332195196146986
leaf_weight=34336 20853 5798 54452 189829 112203 198975 74806 87999 305821 321295 9854 61938 80867 41255 102467 78263 36978 28143 135084 101233 191848 44554 2937 42379 99959 23051 13315 60809 21215 6574
leaf_count=34336 20853 5798 54452 189829 112203 198975 74806 87999 305821 321295 9854 61938 80867 41255 102467 78263 36978 28143 135084 101233 191848 44554 2937 42379 99959 23051 13315 60809 21215 6574
internal_value=0 0.000804747 -0.000498351 -0.000388091 -0.00011322 0.000368422 0.00102833 -0.000501528 -0.000317318 -0.000833846 0.00214616 0.00233587 0.00123233 -0.000285349 0.00331087 0.000980454 0.00149075 -0.00112513 -0.00052118 0.000549015 -0.0012079 -0.00262283 0.000836175 -0.000967872 0.000780571 0.00102535 0.00125438 0.00148565 0.00243183 0.00206588
internal_weight=0 990161 1.59893e+06 1.52004e+06 1.13836e+06 747138 371824 840089 752090 446269 243023 233169 350971 375314 108265 298273 124904 391817 334059 213436 381677 78890 87926 363674 254950 84989 154991 141676 96021 84837
internal_count=2589090 990161 1598929 1520039 1138362 747138 371824 840089 752090 446269 243023 233169 350971 375314 108265 298273 124904 391817 334059 213436 381677 78890 87926 363674 254950 84989 154991 141676 96021 84837
is_linear=0
shrinkage=0.1


Tree=24
num_leaves=31
num_cat=0
split_feature=11 11 11 11 11 0 0 1 2 2 12 1 4 1 1 0 0 11 11 4 2 1 0 1 1 18 0 2 5 1
split_gain=88.9811 64.8169 78.5528 56.1317 29.2069 29.0113 32.2231 26.1868 38.1675 33.2491 19.467 18.4095 23.1204 17.8327 14.672 14.0686 14.0304 14.0303 19.1903 13.7354 13.3995 15.9221 12.9319 12.4351 12.4332 12.2344 12.0544 11.3519 10.6319 10.3191
threshold=0.61764705882352955 0.088235294117647065 0.14705882352941177 0.20588235294117649 1.0000000180025095e-35 34.000000000000007 14.500000000000002 20.500000000000004 2.5000000000000004 1.0000000180025095e-35 1.0000000180025095e-35 17.500000000000004 1.0000000180025095e-35 15.500000000000002 37.500000000000007 34.000000000000007 51.500000000000007 0.38235294117647062 0.3235294117647059 1.0000000180025095e-35 1.0000000180025095e-35 21.500000000000004 31.500000000000004 15.500000000000002 23.500000000000004 1.0000000180025095e-35 34.000000000000007 1.0000000180025095e-35 1.0000000180025095e-35 18.500000000000004
decision_type=2 2 2 2 2 2 2 2 2 2 2 2 2 2 2 2 2 2 2 2 2 2 2 2 2 2 2 2 2 2
left_child=1 4 10 22 15 6 -5 9 -9 11 14 12 23 -2 25 -1 28 18 -11 -13 -6 -22 -4 -8 -10 -3 -15 29 -7 -28
right_child=13 2 3 5 20 16 7 8 24 17 -12 19 -14 26 -16 -17 -18 -19 -20 -21 21 -23 -24 -25 -26 -27 27 -29 -30 -31
leaf_value=0.00099303556204259689 -0.0016985936942829601 -0.0018443038482845423 0.0033364635917211786 -0.0021847243185130487 0.0011835390339791098 -0.00060283124148688904 -0.0085047225537832945 -0.0030408253624048791 0.0011388481800216174 0.0020117292792274067 -0.004660198597678738 -0.00044676815539098768 -0.00030188163953106406 0.0033581308254378491 -0.0035863128573740671 -0.00053805008561388901 0.00050791327081103042 0.0040387412245837034 -0.0013625625683676109 -0.0046033173277714298 0.0043024369033457487 0.0013962106430534379 0.001229999290637374 0.0020581712078614517 -0.00041368586544003605 -0.00083308489786227183 0.0011081716802530252 0.0033870636407292536 -0.0016716840223526203 -0.0067174274043700233
leaf_weight=131956 11078 168522 49261 53393 87874 225052 1128 46205 77627 120970 16999 120441 91069 76848 25302 110078 68597 26788 19583 8512 41925 34253 71368 93208 153744 412512 58508 25876 158678 1735
leaf_count=131956 11078 168522 49261 53393 87874 225052 1128 46205 77627 120970 16999 120441 91069 76848 25302 110078 68597 26788 19583 8512 41925 34253 71368 93208 153744 412512 58508 25876 158678 1735
internal_value=0 -0.000157378 -0.000390297 2.91079e-05 0.000994902 -0.000167437 0.000189843 0.000356825 -0.000416814 0.000802629 -0.0013226 0.000196464 0.000834673 0.00218377 -0.00122903 0.000296692 -0.00080934 0.00194134 0.0015416 -0.000721136 0.00202501 0.00299567 0.00209021 0.00193187 0.000107203 -0.00112638 0.00244768 0.00163525 -0.00104482 0.000882794
internal_weight=0 2.41504e+06 2.00896e+06 1.38562e+06 406086 1.265e+06 812668 759275 277576 481699 623335 314358 185405 174045 606336 242034 452327 167341 140553 128953 164052 76178 120629 94336 231371 581034 162967 86119 383730 60243
internal_count=2589090 2415045 2008959 1385624 406086 1264995 812668 759275 277576 481699 623335 314358 185405 174045 606336 242034 452327 167341 140553 128953 164052 76178 120629 94336 231371 581034 162967 86119 383730 60243
is_linear=0
shrinkage=0.1


Tree=25
num_leaves=31
num_cat=0
split_feature=24 24 3 1 11 4 11 4 1 6 10 3 0 4 0 0 1 11 2 0 1 15 1 12 1 0 11 11 6 3
split_gain=77.703 65.1509 31.451 33.6756 25.7987 25.6404 23.7997 20.7776 20.9427 19.9644 17.7566 16.3322 15.8506 15.177 16.2058 14.9224 12.8169 12.0617 11.986 10.727 9.86222 9.78747 9.61315 9.56964 9.53187 9.23269 8.76731 10.594 8.43402 8.23511
threshold=0.3000000000000001 1.0000000180025095e-35 1.0000000180025095e-35 23.500000000000004 0.3235294117647059 1.0000000180025095e-35 0.14705882352941177 1.0000000180025095e-35 39.500000000000007 0.5 0.075000000000000025 1.0000000180025095e-35 34.000000000000007 1.0000000180025095e-35 28.500000000000004 14.500000000000002 39.500000000000007 0.088235294117647065 6.5000000000000009 28.500000000000004 17.500000000000004 1.0000000180025095e-35 17.500000000000004 1.0000000180025095e-35 15.500000000000002 21.500000000000004 0.26470588235294118 0.20588235294117649 0.5 1.0000000180025095e-35
decision_type=2 2 2 2 2 2 2 2 2 2 2 2 2 2 2 2 2 2 2 2 2 2 2 2 2 2 2 2 2 2
left_child=1 2 3 5 6 9 16 8 11 10 19 24 26 14 15 -4 17 -3 -5 25 -7 -16 -15 29 -2 -1 27 -8 -23 -19
right_child=7 4 13 18 -6 20 12 -9 -10 -11 -12 -13 -14 22 21 -17 -18 23 -20 -21 -22 28 -24 -25 -26 -27 -28 -29 -30 -31
leaf_value=0.0010770956095228542 -0.0095804050496882901 8.9209568906899447e-05 -0.0021021535131514921 -0.0025461617612600163 -0.0020861552897700666 -5.0667624602125773e-05 0.0026774865916956137 5.1921939863557965e-05 -0.0027722223247254761 0.0031015879446688412 0.00027165084535029309 0.001313284298555512 -0.00092227991395051219 -0.0013625371827166541 -0.001630039262334981 0.0012229402954627871 -0.0037411317088555727 -0.00075782827967216227 -0.0001683108307244265 0.0013579952253126692 -0.0047819853721492982 -0.00045287611177460786 -0.0060972314242252589 -0.0038472553311794827 0.0030900296985539141 0.0039300112743388361 0.0014878367274059226 -4.6666294084486286e-05 0.0011256069792798917 -0.0016866389907116107
leaf_weight=16804 597 97097 15198 26987 126316 99392 15185 76037 9008 65222 130532 114946 137095 59390 58240 120577 16607 292076 98831 169839 4610 199541 4622 12691 108667 34909 57120 238385 40765 141804
leaf_count=16804 597 97097 15198 26987 126316 99392 15185 76037 9008 65222 130532 114946 137095 59390 58240 120577 16607 292076 98831 169839 4610 199541 4622 12691 108667 34909 57120 238385 40765 141804
internal_value=0 -0.000201768 0.000330215 0.00079004 -0.000738948 0.00114443 -0.000570134 0.00148744 0.00195546 0.00149455 0.00119685 0.00214541 -2.66236e-05 -0.000266906 -5.50412e-05 0.000850745 -0.00100452 -0.000920928 -0.000678342 0.00174195 -0.000260388 -0.000466982 -0.00170441 -0.00114056 0.0030208 0.00300296 0.000368594 0.000116469 -0.000185106 -0.00106139
internal_weight=0 2.27984e+06 1.14546e+06 647126 1.13438e+06 521308 1.00806e+06 309255 233218 417306 352084 224210 447785 498333 434321 135775 560275 543668 125818 221552 104002 298546 64012 446571 109264 51713 310690 253570 240306 433880
internal_count=2589090 2279835 1145459 647126 1134376 521308 1008060 309255 233218 417306 352084 224210 447785 498333 434321 135775 560275 543668 125818 221552 104002 298546 64012 446571 109264 51713 310690 253570 240306 433880
is_linear=0
shrinkage=0.1


Tree=26
num_leaves=31
num_cat=0
split_feature=5 13 13 3 1 2 1 4 13 2 1 1 1 4 3 0 0 0 1 0 0 4 10 4 1 2 2 10 1 3
split_gain=69.9938 51.8063 38.8957 26.6009 20.3547 20.0221 24.2615 17.852 20.2546 15.5962 23.013 20.6978 13.6464 14.6101 12.8269 12.5224 12.4011 25.638 12.8804 12.6169 11.6569 11.5792 11.3225 9.62713 9.55263 11.7137 9.16851 9.10452 8.42368 8.13748
threshold=1.0000000180025095e-35 0.3000000000000001 1.0000000180025095e-35 1.0000000180025095e-35 34.500000000000007 1.5000000000000002 19.500000000000004 1.0000000180025095e-35 1.0000000180025095e-35 1.0000000180025095e-35 18.500000000000004 20.500000000000004 41.500000000000007 1.0000000180025095e-35 1.0000000180025095e-35 34.000000000000007 28.500000000000004 21.500000000000004 19.500000000000004 25.500000000000004 27.500000000000004 1.0000000180025095e-35 0.32500000000000001 1.0000000180025095e-35 20.500000000000004 3.5000000000000004 2.5000000000000004 0.075000000000000025 15.500000000000002 1.0000000180025095e-35
decision_type=2 2 2 2 2 2 2 2 2 2 2 2 2 2 2 2 2 2 2 2 2 2 2 2 2 2 2 2 2 2
left_child=1 2 9 4 7 6 23 8 -2 10 15 -11 13 16 -3 21 17 -4 19 -19 -21 28 24 -5 27 -26 -13 -10 -1 -18
right_child=3 14 12 5 -6 -7 -8 -9 22 11 -12 26 -14 -15 -16 -17 29 18 -20 20 -22 -23 -24 -25 25 -27 -28 -29 -30 -31
leaf_value=-0.0086287669693946353 0.0014227634646432567 0.0027918426757328617 -0.00057833123063356115 -0.0009430354496668663 -0.0018165357464023939 -0.00037974451986253784 -0.0038301151387941665 -0.0013374739605826773 0.00074496024163815851 0.0031426002995658779 -0.0031458677838952726 -0.004063092188624942 -0.0029563645060578618 -0.0012237894230967862 0.0011666069674838408 7.8404975861671991e-05 0.00017232572267257657 0.0039812236538043231 0.00054395152260767728 0.00056519394036449924 0.0069650268746821141 0.00047163009737776927 -0.0027272421919402358 -0.0026355192146450559 -0.0017672189475298498 -8.6274154169911776e-05 0.00096746263016176954 -0.00029578471554209948 0.002871882355952227 -0.00069944072680402751
leaf_weight=645 105239 103001 86482 176738 69542 205144 44364 91894 201355 71919 15216 3860 16849 96732 91878 92552 245462 33526 54341 28649 3160 40960 15795 41500 57089 151392 59005 144290 50587 189924
leaf_count=645 105239 103001 86482 176738 69542 205144 44364 91894 201355 71919 15216 3860 16849 96732 91878 92552 245462 33526 54341 28649 3160 40960 15795 41500 57089 151392 59005 144290 50587 189924
internal_value=0 0.000523893 0.000255373 -0.000516023 -0.000178348 -0.00111998 -0.00169825 -2.9828e-05 0.000148152 0.00115263 0.000592225 0.00198402 -0.000142377 -7.81563e-05 0.00202561 0.000900104 9.45823e-05 0.000733514 0.0016815 0.00262763 0.00120097 0.00172501 -8.72122e-05 -0.00126488 -1.19599e-05 -0.000546572 0.000658579 0.0003105 0.00272709 -0.000207956
internal_weight=0 1.28475e+06 1.08987e+06 1.30434e+06 836596 467746 262602 767054 675160 334744 199960 134784 755125 738276 194879 184744 641544 206158 119676 65335 31809 92192 569921 218238 554126 208481 62865 345645 51232 435386
internal_count=2589090 1284748 1089869 1304342 836596 467746 262602 767054 675160 334744 199960 134784 755125 738276 194879 184744 641544 206158 119676 65335 31809 92192 569921 218238 554126 208481 62865 345645 51232 435386
is_linear=0
shrinkage=0.1


Tree=27
num_leaves=31
num_cat=0
split_feature=17 7 0 0 14 7 1 2 1 0 9 0 0 0 1 10 10 10 3 14 9 0 0 2 1 1 2 0 0 0
split_gain=61.7198 36.9661 24.8729 25.4219 23.8771 20.7172 15.9413 17.1166 20.9968 15.9162 16.9258 15.7489 14.4922 14.1419 13.6922 12.7444 11.6425 16.2758 13.1886 13.1874 11.164 11.119 9.65451 9.59176 10.4456 9.31722 10.2806 8.85111 8.24659 8.49538
threshold=1.0000000180025095e-35 0.5 14.500000000000002 28.500000000000004 1.0000000180025095e-35 1.0000000180025095e-35 28.500000000000004 1.0000000180025095e-35 18.500000000000004 27.500000000000004 0.41666666666666669 31.500000000000004 14.500000000000002 34.000000000000007 54.500000000000007 0.32500000000000001 0.27500000000000008 0.22500000000000003 1.0000000180025095e-35 1.0000000180025095e-35 0.41666666666666669 21.500000000000004 51.500000000000007 1.0000000180025095e-35 19.500000000000004 20.500000000000004 2.5000000000000004 25.500000000000004 25.500000000000004 21.500000000000004
decision_type=2 2 2 2 2 2 2 2 2 2 2 2 2 2 2 2 2 2 2 2 2 2 2 2 2 2 2 2 2 2
left_child=2 5 -1 4 9 11 7 8 13 10 28 12 -2 21 15 16 17 18 19 -5 -14 -3 -15 24 -12 -9 -27 -23 29 -4
right_child=1 6 3 14 -6 -7 -8 25 -10 -11 23 -13 20 22 -16 -17 -18 -19 -20 -21 -22 27 -24 -25 -26 26 -28 -29 -30 -31
leaf_value=-0.0021154878492129249 -0.0020979316571615972 -0.00025591401357389211 -8.0656601606026885e-05 -0.00069748971945438076 0.0013203089942097213 -0.00040179168305146806 -0.0019565986222903637 0.003432714717622336 -0.0034374152025449713 0.0023561647338467577 -0.0012251793540788173 0.00020765113995254011 0.0023036712553110585 0.00024356716470185053 -0.0055649104610831996 -0.0040215442075564158 0.0013738082679825971 -0.0025870548853659872 -0.0010954582657766868 0.0003956548052951447 -3.3089597160829047e-05 0.0051400450945917626 0.0031150925324294042 -0.00033049583718361311 -0.0042359535335718809 -0.0055154918378819869 0.0018177303080992584 0.0022981420615241924 -0.00076376540916921806 0.0011159838334086907
leaf_weight=78890 10081 13867 119321 253257 138992 306654 12630 66027 9532 24385 90202 233909 102943 93194 5684 10992 29000 41765 280259 195586 25512 13540 13391 135264 13211 2045 29339 57497 64125 117996
leaf_count=78890 10081 13867 119321 253257 138992 306654 12630 66027 9532 24385 90202 233909 102943 93194 5684 10992 29000 41765 280259 195586 25512 13540 13391 135264 13211 2045 29339 57497 64125 117996
internal_value=0 0.000620441 -0.000384218 -0.000294365 0.000146226 0.000206912 0.00152324 0.00167051 0.00114332 -0.000142856 -0.00025568 0.000708091 0.00155305 0.00137134 -0.000673958 -0.000639673 -0.000593198 -0.000667197 -0.000557222 -0.000221146 0.00183958 0.00233421 0.000604336 -0.00088479 -0.00160981 0.00275845 0.00133989 0.00283982 0.000242438 0.000514323
internal_weight=0 990161 1.59893e+06 1.52004e+06 703496 679099 311062 298432 201021 564504 540119 372445 138536 191489 816543 810859 799867 770867 729102 448843 128455 84904 106585 238677 103413 97411 31384 71037 301442 237317
internal_count=2589090 990161 1598929 1520039 703496 679099 311062 298432 201021 564504 540119 372445 138536 191489 816543 810859 799867 770867 729102 448843 128455 84904 106585 238677 103413 97411 31384 71037 301442 237317
is_linear=0
shrinkage=0.1


Tree=28
num_leaves=31
num_cat=0
split_feature=9 9 9 4 12 0 0 7 6 7 2 1 10 13 13 11 11 11 1 2 1 1 2 1 2 1 10 3 0 11
split_gain=55.4085 66.1198 31.7469 25.5391 24.8632 21.7519 19.8626 18.1071 16.7616 12.4681 12.2387 16.3909 11.7017 10.9067 13.1566 10.8769 12.8289 13.83 10.7624 10.6199 11.2305 9.54663 13.771 9.92521 10.1355 8.1966 8.04396 7.4431 7.13278 6.63572
threshold=0.83333333333333337 0.41666666666666669 1.0000000180025095e-35 1.0000000180025095e-35 1.0000000180025095e-35 28.500000000000004 14.500000000000002 0.6428571428571429 0.5 1.0000000180025095e-35 1.0000000180025095e-35 18.500000000000004 0.32500000000000001 1.0000000180025095e-35 0.3000000000000001 0.088235294117647065 0.14705882352941177 0.20588235294117649 17.500000000000004 1.0000000180025095e-35 18.500000000000004 19.500000000000004 2.5000000000000004 22.500000000000004 5.5000000000000009 15.500000000000002 0.075000000000000025 1.0000000180025095e-35 34.000000000000007 1.0000000180025095e-35
decision_type=2 2 2 2 2 2 2 2 2 2 2 2 2 2 2 2 2 2 2 2 2 2 2 2 2 2 2 2 2 2
left_child=1 2 3 4 8 6 -4 10 13 -8 11 26 15 -1 -15 29 -17 -18 -5 20 25 -12 -23 -24 -25 -2 -3 -19 -27 -7
right_child=19 7 5 18 -6 12 9 -9 -10 -11 21 -13 -14 14 -16 16 17 27 -20 -21 -22 22 23 24 -26 28 -28 -29 -30 -31
leaf_value=0.0014205777500446307 -0.0012296184597449097 -0.00040884349538285468 -0.0013237586079452501 -0.00026507391132272123 0.0031858601157696803 -9.0464554781259404e-05 0.001406362313331636 -0.0025569142142671838 0.0020735519453501483 0.00025641591242211303 0.00055892663035277297 -0.0029239035014381118 -0.0038071680574853261 -0.00017040191872624442 0.0022157842571561091 -0.0013471065523293589 0.0013413562057586783 -0.00012592050745772031 -0.0051360637543736926 0.0037397002321982505 -0.0040265822282600887 -0.0022577540471889253 0.00079550275840134109 -0.0026881409347013357 -0.00039389132853330782 0.0032229518722337747 -0.0016523347399077072 -0.00096180146207864355 0.0011729176034348818 0.0012310191764106683
leaf_weight=96298 7879 128288 52772 118234 54058 104314 163866 64305 93183 222046 81864 49914 9828 181521 26477 145504 47606 273632 4717 31550 3430 45493 56169 23198 113312 33288 87506 174440 34627 59771
leaf_count=96298 7879 128288 52772 118234 54058 104314 163866 64305 93183 222046 81864 49914 9828 181521 26477 145504 47606 273632 4717 31550 3430 45493 56169 23198 113312 33288 87506 174440 34627 59771
internal_value=0 -9.78037e-05 0.000210189 0.000825793 0.00117371 -7.18834e-05 0.000495878 -0.000964036 0.000900059 0.000744706 -0.000789164 -0.00129083 -0.000377452 0.000540706 0.000133346 -0.000335594 -0.000521514 -0.000279165 -0.000451949 0.00218813 0.00157024 -0.000372663 -0.000692867 -0.000323385 -0.000783768 0.00182352 -0.000913088 -0.000451339 0.00217773 0.00039091
internal_weight=0 2.47832e+06 1.82827e+06 574488 451537 1.25378e+06 438684 650049 397479 385912 585744 265708 815095 304296 207998 805267 641182 495678 122951 110774 79224 320036 238172 192679 136510 75794 215794 448072 67915 164085
internal_count=2589090 2478316 1828267 574488 451537 1253779 438684 650049 397479 385912 585744 265708 815095 304296 207998 805267 641182 495678 122951 110774 79224 320036 238172 192679 136510 75794 215794 448072 67915 164085
is_linear=0
shrinkage=0.1


Tree=29
num_leaves=31
num_cat=0
split_feature=5 6 6 4 1 3 1 2 1 1 1 10 1 2 6 15 2 1 0 0 13 2 0 20 0 6 6 0 4 2
split_gain=48.7079 33.2038 20.665 20.4408 19.4392 17.8021 20.0818 16.2472 22.849 18.198 15.5145 14.9833 14.4508 13.7769 13.4938 10.969 10.4841 19.4764 9.99141 37.4141 9.54697 8.83413 8.12227 10.7809 10.0236 8.32792 7.87593 7.66535 9.66886 7.66282
threshold=1.0000000180025095e-35 0.5 0.21428571428571427 1.0000000180025095e-35 26.500000000000004 1.0000000180025095e-35 24.500000000000004 1.0000000180025095e-35 19.500000000000004 20.500000000000004 17.500000000000004 0.075000000000000025 15.500000000000002 2.5000000000000004 0.35714285714285715 1.0000000180025095e-35 1.5000000000000002 19.500000000000004 25.500000000000004 21.500000000000004 1.0000000180025095e-35 7.5000000000000009 34.000000000000007 1.0000000180025095e-35 42.500000000000007 0.6428571428571429 0.85714285714285732 42.500000000000007 1.0000000180025095e-35 9.5000000000000018
decision_type=2 2 2 2 2 2 2 2 2 2 2 2 2 2 2 2 2 2 2 2 2 2 2 2 2 2 2 2 2 2
left_child=1 2 7 5 12 6 11 8 18 -9 -5 20 -3 -11 -4 -14 17 -7 19 -1 -2 -8 23 25 -24 -17 -27 -20 -29 -6
right_child=3 4 14 10 29 16 21 9 -10 13 -12 -13 15 -15 -16 22 -18 -19 27 -21 -22 -23 24 -25 -26 26 -28 28 -30 -31
leaf_value=-0.00090614736521944588 0.001940498305612162 -0.0013608686561466824 -0.0010340030356986792 -0.0012298204292327908 -0.0043905117131744428 -0.00082513777364809013 -0.0020107446898150554 0.0018318054457879575 -0.0034000515302471512 -0.0028344709119251469 -0.0047324579191282135 -0.00028655740918965444 0.00014967341322095327 0.0005561253353162718 0.00023872801882245649 0.0030391799276178969 -0.00029791208147446482 -0.0031881572298895853 -0.00024183620697604657 0.0039136688458692153 0.00049617492962937505 -0.00047088494605725681 0.00085987050781809779 0.0032873782174370637 0.0030282198142497479 -0.001397146581502478 0.0026257745648413633 0.0024884857571639391 -0.00083299952194023242 -0.00031228849871509882
leaf_weight=34466 55585 15649 190294 120465 6297 176738 52571 146054 18298 13256 14129 249303 36118 124880 148163 14731 205144 43456 240540 30233 259059 127892 82622 77515 28733 14422 7345 24232 13730 17170
leaf_count=34466 55585 15649 190294 120465 6297 176738 52571 146054 18298 13256 14129 249303 36118 124880 148163 14731 205144 43456 240540 30233 259059 127892 82622 77515 28733 14422 7345 24232 13730 17170
internal_value=0 0.000437032 0.000156067 -0.000430467 0.00135689 -0.000296184 -1.29998e-06 0.000487831 4.30683e-05 0.00105358 -0.00159751 0.000292513 0.00159089 0.000230752 -0.000476852 0.00176754 -0.000812278 -0.00129149 0.000226641 0.00134609 0.000751329 -0.000919464 0.00202683 0.00262012 0.00141937 0.00120299 -3.96625e-05 -3.34194e-05 0.00128718 -0.00140662
internal_weight=0 1.28475e+06 984146 1.30434e+06 300602 1.16975e+06 744410 645689 361499 284190 134594 563947 277135 138136 338457 261486 425338 220194 343201 64699 314644 180463 225368 114013 111355 36498 21767 278502 37962 23467
internal_count=2589090 1284748 984146 1304342 300602 1169748 744410 645689 361499 284190 134594 563947 277135 138136 338457 261486 425338 220194 343201 64699 314644 180463 225368 114013 111355 36498 21767 278502 37962 23467
is_linear=0
shrinkage=0.1


Tree=30
num_leaves=31
num_cat=0
split_feature=25 13 13 2 1 1 12 0 0 2 1 1 1 0 0 2 4 9 11 0 0 0 15 4 1 5 1 10 10 10
split_gain=42.7847 39.9812 33.6501 19.5998 27.0551 19.0809 16.5309 14.807 17.7579 13.4858 25.9375 20.4361 13.1037 14.2333 22.7278 12.8532 12.7271 11.8717 11.846 11.6303 14.1768 10.7714 10.1044 9.83601 9.74555 9.57801 9.41583 8.56694 17.7635 9.85689
threshold=1.0000000180025095e-35 0.3000000000000001 1.0000000180025095e-35 1.0000000180025095e-35 18.500000000000004 20.500000000000004 1.0000000180025095e-35 28.500000000000004 21.500000000000004 1.0000000180025095e-35 18.500000000000004 21.500000000000004 20.500000000000004 25.500000000000004 27.500000000000004 2.5000000000000004 1.0000000180025095e-35 1.0000000180025095e-35 0.3235294117647059 34.000000000000007 42.500000000000007 34.000000000000007 1.0000000180025095e-35 1.0000000180025095e-35 17.500000000000004 1.0000000180025095e-35 15.500000000000002 0.17500000000000002 0.075000000000000025 0.22500000000000003
decision_type=2 2 2 2 2 2 2 2 2 2 2 2 2 2 2 2 2 2 2 2 2 2 2 2 2 2 2 2 2 2
left_child=1 2 3 4 16 -5 7 8 23 10 21 -11 13 25 -15 -7 19 -8 -2 24 -21 -3 -9 -4 26 -10 -1 28 -24 -29
right_child=18 9 6 5 -6 15 17 22 12 11 -12 -13 -14 14 -16 -17 -18 -19 -20 20 -22 -23 27 -25 -26 -27 -28 29 -30 -31
leaf_value=-0.0076610907864118616 -0.00060792212090406822 0.0020738454598883179 -0.00031759841110887426 0.0023269282879314788 -0.0027952452193072286 -0.0034473038413798496 0.0013349341338493425 -0.001194484670009671 0.0033438640778150975 0.0036128721807365035 -0.004463369716656381 0.00023095717370595688 -0.00014329712540692656 -0.0004388779180378157 0.0044535284962031177 0.00078985012377850495 -0.00039851057080554262 -0.003418082917320436 -0.0020053773601584821 -0.00059490613474898863 0.0022471531375995333 0.00041869244943145415 -0.00016723688351441156 -0.0030011173358716792 0.00064961773752123463 0.001331442677692169 0.0030779517954890871 0.0009475129739060506 -0.001654772112607858 -0.00067412848795391357
leaf_weight=832 477515 73017 135015 113928 27789 7647 6587 142535 36078 52966 8578 26964 104224 67830 11041 112221 101500 25987 69486 61429 24572 85194 389689 15196 35154 68658 43672 104111 101106 58569
